tree
version=v4
num_class=1
num_tree_per_iteration=1
label_index=0
max_feature_idx=30
objective=lambdarank
feature_names=n dim size log_size cnot_cost t_cost objective_cost control_count is_singleton support_bits active_size overlap off_count cover_ratio off_ratio monotone_valid mono_removed xor_next_size mono_next_size cost_per_overlap cost_per_size current_cost t_cnot_ratio cover_per_dim xor_parity_flip basis_overlap dim_cost_ratio size_cost_ratio off_active_ratio mono_xor_gap greedy_value
feature_infos=[3:6] [0:5] [1:32] [0:5] [0:24] [0:40] [0:24] [0:6] [0:1] [0:6] [1:32] [1:16] [0:22] [0.3125:1] [0:0.6875] [0:1] [1:16] [0:31] [0:31] [0:18] [0:18] [0:284] [0:2.4000000953674316] [1:4] [-16:12] [0:1] [0:5] [0.0555555559694767:32] [0:2.2000000476837158] [-22:0] [0.0555555559694767:13]
tree_sizes=4441 4135 4762 5972 4568 5391 4232 4458 4347 4376 5406 4462 5321 4679 4793 5315 5423 5833 5533 5078 5866 5016 4995 5212 5450 5835 6073 5335 5115 5851 5105 4785 5672 5633 5120 5225 5456 5137 4822 4797 5883 3614 3629 3615 3639 5982 5106 4382 5129 5101 3191 3790 3297 3603 3281 5225 4378 5657 5010 5251

Tree=0
num_leaves=40
num_cat=0
split_feature=19 17 1 17 22 19 13 0 10 22 11 18 9 17 17 19 0 19 18 19 6 10 17 19 5 10 10 0 18 22 18 6 6 6 10 19 10 25 22
split_gain=8204.24 6035.35 1552.16 1409.54 978.499 976.188 718.957 569.121 796.396 445.196 424.028 433.514 376.284 271.354 223.815 348.88 183.295 178.858 161.239 120.525 113.313 110.173 99.3694 474.081 94.4788 78.9022 43.4729 37.3779 32.4441 30.6174 24.4683 20.959 13.5474 12.8349 12.272 9.94325 5.34576 1.85756 1.62902
threshold=5.6666667461395273 2.5000000000000004 1.5000000000000002 1.0000000180025095e-35 2.2539683580398564 8.5000000000000018 0.46875000000000006 5.5000000000000009 9.5000000000000018 2.2539683580398564 3.5000000000000004 4.5000000000000009 2.5000000000000004 24.500000000000004 4.5000000000000009 8.5000000000000018 4.5000000000000009 9.5000000000000018 1.5000000000000002 8.5000000000000018 13.000000000000002 5.5000000000000009 8.5000000000000018 3.7500000000000004 28.000000000000004 8.5000000000000018 7.5000000000000009 5.5000000000000009 9.5000000000000018 0.94444444775581371 1.5000000000000002 13.000000000000002 11.000000000000002 19.000000000000004 5.5000000000000009 7.5000000000000009 11.500000000000002 0.70833334326744091 1.0714285969734194
decision_type=2 2 2 2 2 2 2 2 2 2 2 2 2 2 2 2 2 2 2 2 2 2 2 2 2 2 2 2 2 2 2 2 2 2 2 2 2 2 2
left_child=6 3 4 -2 14 12 -1 21 -9 17 11 16 27 22 15 -3 18 -7 -8 28 25 -6 29 -24 -11 -13 33 -5 35 -12 -14 -16 -15 -21 -18 -4 -22 -28 -30
right_child=1 2 19 5 7 9 10 8 -10 24 13 20 30 32 31 -17 34 -19 -20 26 36 -23 23 -25 -26 -27 37 -29 38 -31 -32 -33 -34 -35 -36 -37 -38 -39 -40
leaf_value=-0.098382860991760385 0.099491375186510245 -0.028229211960559421 0.04917481520495233 0.057710197198363934 -0.035929255403762239 -0.0075822650038709395 0.065780250597721246 0.069891445247811504 -0.097096332177091751 -0.046971756046851554 0.077071164671539821 -0.011939838844551841 -0.012269098785705479 0.014207724240149639 -0.082022305166202902 -0.096105757240421433 0.086849905671045668 -0.092075532049538042 -0.053113400010648348 0.0087611591466778879 0.05619953641270406 -0.085805487721501136 0.08164854978045466 -0.020552568086097078 0.03216832505061111 -0.08423494966027735 -0.056411020985572768 0.087385880936844018 -0.019977074652942829 0.09532057302482895 -0.065819725198681761 -0.097654336324749902 -0.087970879956810299 -0.027016026436483837 0.061951077123197786 0.030555651304751203 0.013350164808073293 -0.018485751805820912 -0.064728625552665883
leaf_weight=63.929483158222865 696.02452466380782 358.00717719359091 136.59895338548813 196.66428290738259 208.29984570777742 82.508830914273858 55.589935982832685 248.49791471054778 99.043870142719243 45.903541186009534 350.5237580924877 73.620211589674 44.54574161808705 3.3405325603671399 291.4731487025856 404.17087507981341 229.45358381763799 263.29260143870488 56.4753196752863 102.38642884854926 28.300905530864839 242.52703734626994 980.26673013012623 127.81860363285523 191.91188792948378 77.68156722211279 47.408928077784367 264.53388681664364 16.416567175823733 956.36569083476206 41.473298302618787 2041.426092294394 23.982694552687462 32.090784693951719 82.337023362342734 174.70470108650625 11.144355317810549 5.2295891226967788 1.9769182983436611
leaf_count=3032 3050 8908 1729 2163 5614 2027 527 1937 3998 1631 2374 1597 1023 54 10515 15828 1233 11500 1547 2146 316 8698 5946 3201 3309 2739 1800 1551 477 3162 1359 82086 905 845 745 2900 202 148 78
internal_value=0.00027692 -0.032838 -0.0644899 0.0435642 -0.0752949 0.00907926 0.0664495 -0.0258918 0.0221462 -0.0358706 0.0699293 0.0327201 0.0570062 0.0792737 -0.0880242 -0.0643084 0.06085 -0.0720097 0.00587971 0.0168891 -0.029752 -0.0629023 0.0810544 0.0698472 0.0167389 -0.0493999 -0.0150926 0.0748946 0.0350458 0.0904924 -0.0386052 -0.0957394 -0.0752414 5.02184e-05 0.0805097 0.038873 0.0448465 -0.0531513 -0.0281344
internal_weight=9357.95 6237.12 4410.26 1826.86 3893.45 1130.83 3120.83 798.369 347.542 583.617 3056.9 614.603 547.217 2442.3 3095.08 762.178 423.856 345.801 112.065 516.813 190.747 450.827 2414.97 1108.09 237.815 151.302 187.116 461.198 329.697 1306.89 86.019 2332.9 27.3232 134.477 311.791 311.304 39.4453 52.6385 18.3935
internal_count=202900 175320 147707 27613 137584 24563 27580 20247 5935 18467 24548 8906 6096 15642 117337 24736 4052 13527 2074 10123 4854 14312 14683 9147 4940 4336 4939 3714 5184 5536 2382 92601 959 2991 1978 4629 518 1948 555
is_linear=0
shrinkage=0.05


Tree=1
num_leaves=37
num_cat=0
split_feature=19 17 10 19 21 20 21 1 5 20 13 20 17 9 17 24 17 24 24 6 9 11 9 6 17 19 17 19 10 10 19 21 21 19 17 21
split_gain=10928.3 17268.1 4590.48 3835.18 2784.93 1552.98 1548.43 3556.86 1400.39 1292.4 1045.51 838.211 768.912 924.013 888.964 696.07 672.587 539.182 441.877 387.95 370.974 286.504 321.957 162.33 157.596 122.515 116.563 98.5997 67.5627 29.8881 25.64 9.73586 8.95888 4.69835 4.56963 3.65037
threshold=5.6666667461395273 1.0000000180025095e-35 7.5000000000000009 8.5000000000000018 1.0000000180025095e-35 5.5000000000000009 81.500000000000014 1.0000000180025095e-35 28.000000000000004 5.5000000000000009 0.46875000000000006 6.5000000000000009 5.5000000000000009 3.5000000000000004 15.500000000000002 -4.9999999999999991 15.500000000000002 -2.9999999999999996 -2.9999999999999996 15.000000000000002 3.5000000000000004 3.5000000000000004 3.5000000000000004 11.000000000000002 5.5000000000000009 7.5000000000000009 3.5000000000000004 8.5000000000000018 9.5000000000000018 8.5000000000000018 7.5000000000000009 101.00000000000001 95.500000000000014 2.5833333730697636 22.500000000000004 81.500000000000014
decision_type=2 2 2 2 2 2 2 2 2 2 2 2 2 2 2 2 2 2 2 2 2 2 2 2 2 2 2 2 2 2 2 2 2 2 2 2
left_child=4 32 3 8 15 27 9 -8 11 -5 -6 -3 18 17 -15 34 21 -14 29 -10 23 24 -23 -18 -17 28 -20 30 -7 -12 -4 -29 -2 -22 -1 -27
right_child=1 2 5 6 10 25 7 -9 19 -11 12 -13 13 14 -16 16 20 -19 26 -21 33 22 -24 -25 -26 35 -28 31 -30 -31 -32 -33 -34 -35 -36 -37
leaf_value=0.088642992226593456 0.09323738823917431 0.0022310175744026501 0.018553247618697758 0.0089366849178916796 -0.093774387738141021 -0.059568632676303801 0.081106528518828699 -0.075773366609193704 0.058294615992016366 -0.081695651898911786 0.089782561553264723 -0.05567013475342817 0.06962562819363631 0.028944469005502561 -0.076584049824923242 -0.0074787661906241549 0.040374994472143405 0.0018647280519000029 0.060193236818925515 0.017652172306538649 -0.046389724320798964 0.033049682609141783 -0.012282863567041859 -0.040590157026075081 -0.058840245633642922 -0.09089105627049518 0.028061355590786582 -0.039998687168055519 -0.083110463144417168 0.07496234199502215 -0.0050040554564661577 0.0033241208574957583 0.081770103616306739 -0.096429251882764355 0.066168362400463948 -0.064102642671433632
leaf_weight=166.04817603155971 2503.5735135599971 1968.5083212582394 260.092730876524 447.38153264578432 119.83988738898188 564.7209529383108 619.92580739315599 863.11334560764953 1053.6169465910643 3238.3824369130889 1677.4361356347799 914.71699578105472 2472.5471525695175 2139.6749148876406 219.10124496230856 462.46751696337014 87.524650229141116 333.34469477087259 824.88424724619836 1328.6961787990294 7.9473739955574265 955.80548149812967 662.20434586238116 205.06515696831048 220.04202575143427 4044.3460523269023 434.3094348507002 154.25853161211126 712.94181034050416 487.15786439552903 206.06091847689822 13.759145705495028 266.76400379836559 294.60108185815625 48.439938090741634 24.614746772684157
leaf_count=303 2841 8618 987 2927 2672 5194 944 12816 1496 41968 1191 8994 2090 3505 825 2383 226 1770 1240 4668 41 2178 2157 593 2788 67119 1224 2413 12244 390 1248 159 209 1908 96 475
internal_value=1.71129e-05 -0.0232811 -0.0427693 -0.0227468 0.0378374 -0.0776909 -0.053338 -0.0101821 0.00728589 -0.0706938 0.0523411 -0.0161496 0.0543912 0.042193 0.0191118 -0.00277452 -0.00922475 0.0615808 0.0727726 0.035646 -0.0565552 0.00303658 0.0144972 -0.0162984 -0.024107 -0.0864642 0.0491456 -0.0036968 -0.0727637 0.0864856 0.00814073 -0.0364227 0.0921649 -0.0952884 0.0839211 -0.090746
internal_weight=31003.9 19185.5 16415.1 10434.3 11818.4 5980.79 5168.8 1483.04 5265.54 3685.76 8708.3 2883.23 8588.46 5164.67 2358.78 3110.15 2895.66 2805.89 3423.79 2382.31 595.138 2300.52 1618.01 292.59 682.51 5346.62 1259.19 634.171 1277.66 2164.59 466.154 168.018 2770.34 302.548 214.488 4068.96
internal_count=202900 175320 172270 82431 27580 89839 58655 13760 23776 44895 14907 17612 12235 8190 4330 12673 12274 3860 4045 6164 2768 9506 4335 819 5171 85032 2464 4807 17438 1581 2235 2572 3050 1949 399 67594
is_linear=0
shrinkage=0.05


Tree=2
num_leaves=43
num_cat=0
split_feature=30 17 18 30 20 24 22 0 17 20 1 13 20 22 10 17 20 1 6 18 5 5 1 18 0 6 0 10 22 18 30 10 10 30 10 6 17 18 20 10 10 20
split_gain=11343.7 12022.2 4663.28 2200.1 1426.74 1127.4 1054.69 980.437 739.725 861.685 542.801 497.971 469.484 461.988 417.887 390.802 441.422 370.417 291.67 283.972 370.067 244.796 218.913 202.528 189.67 165.67 149.562 148.89 77.0475 153.852 64.5233 55.4748 52.6602 41.1825 29.0668 44.4164 27.8074 19.449 18.6204 17.5183 5.95202 2.87323
threshold=0.17708333581686023 1.0000000180025095e-35 4.5000000000000009 0.11805555596947671 5.5000000000000009 -2.9999999999999996 2.2539683580398564 5.5000000000000009 5.5000000000000009 3.7500000000000004 1.5000000000000002 0.46875000000000006 6.5000000000000009 2.2539683580398564 15.500000000000002 11.500000000000002 2.7500000000000004 1.0000000180025095e-35 15.000000000000002 4.5000000000000009 20.000000000000004 28.000000000000004 1.5000000000000002 1.0000000180025095e-35 4.5000000000000009 17.000000000000004 4.5000000000000009 8.5000000000000018 0.84444445371627819 3.5000000000000004 0.11805555596947671 17.500000000000004 4.5000000000000009 0.11805555596947671 8.5000000000000018 17.000000000000004 12.500000000000002 1.5000000000000002 1.8750000000000002 8.5000000000000018 7.5000000000000009 7.5000000000000009
decision_type=2 2 2 2 2 2 2 2 2 2 2 2 2 2 2 2 2 2 2 2 2 2 2 2 2 2 2 2 2 2 2 2 2 2 2 2 2 2 2 2 2 2
left_child=1 41 3 6 30 8 10 12 28 15 -3 -7 -5 33 25 24 -17 -15 -9 20 23 -8 27 -13 -10 -11 -24 -21 29 37 39 -16 -22 -6 40 -36 -32 -2 -31 -4 -30 -1
right_child=5 2 4 7 13 11 21 18 9 14 -12 19 -14 17 31 16 -18 -19 -20 22 32 -23 26 -25 -26 -27 -28 -29 34 38 36 -33 -34 -35 35 -37 -38 -39 -40 -41 -42 -43
leaf_value=0.07960522342924628 0.089317920326066252 -0.073421776744232947 -0.016245637534925233 0.0032098463744714258 -0.086023923271421415 -0.089507477236164937 -0.04636153622633251 0.060417125874523747 -0.019892410265657828 0.02901089408901715 -0.008842035166593416 0.076937315262897293 -0.04538402064488295 -0.080838933616387179 -0.03151734972850171 0.070044243254158631 0.020883600631497072 -0.021214978322885845 0.020830724815133317 -0.0058793769561100049 0.063875027824812511 0.0024947736321518821 -0.082840866205660307 -0.0061991185911548057 0.070159184330760696 -0.017282732018850926 0.022133468254494245 -0.068788096096844567 0.085641286955179335 0.039591309579897913 0.004190789155858579 -0.088136839998241442 0.040526664815766666 -0.076838048903781375 0.074252503847742915 0.031429797464590452 -0.046334948957777393 0.062343208652107421 -0.002604033269611436 -0.042796798116209331 0.077503981644690079 0.086309640639492299
leaf_weight=418.75114932283759 134.5015447512269 1934.7153160287999 140.44214403652586 1743.62835518457 3300.5646577656735 109.69084258796647 329.53016521269456 789.42642536014318 59.807843558955938 670.71188820712268 391.69552303198725 81.825227316468954 694.08225533901714 450.3122884822078 73.019835821352899 668.90374905243516 1440.189163078554 619.2021955801174 1136.8489909637719 228.48551630834118 425.7800312936306 1141.946157501312 35.038263965398073 632.80776626057923 1929.0873699914664 270.40425120666623 581.81482729874551 159.34340728446841 897.36565072834492 35.203903451561928 560.08552537020296 112.65602462505922 585.78751200996339 2171.643112974707 412.76194386556745 73.90946301445365 27.614607175346464 169.28799558524042 93.052792944014072 114.75755896791816 546.56891945004463 1778.9940126985312
leaf_count=590 143 30826 1633 6859 57064 3032 3668 1025 240 1435 2802 172 6904 7529 565 909 3533 5223 3417 1395 692 6886 545 2599 2213 1217 1388 2396 714 79 2389 1789 1060 33744 385 113 306 234 233 1995 499 2460
internal_value=-4.19337e-05 -0.0243642 -0.0398395 -0.0137882 -0.0686263 0.0413427 -0.0416104 0.0104277 0.0514014 0.0408867 -0.0625592 0.0144646 -0.010637 -0.0765142 0.00215568 0.051532 0.0365032 -0.046376 0.0370796 0.0186738 0.0309689 -0.00846703 -0.00245572 0.00340719 0.0674401 0.0157001 0.0160382 -0.0318494 0.0746242 0.0552192 -0.00738398 -0.0661853 0.0504126 -0.0823941 0.0789334 0.0678372 0.00173354 0.0745564 0.00915576 -0.0283251 0.0826203 0.0850713
internal_weight=28172.2 17744.2 15546.5 8161.87 7384.62 10428 3797.89 4363.99 7587.43 5224.78 2326.41 2840.57 2437.71 6541.72 1126.79 4097.99 2109.09 1069.51 1926.28 2730.88 1726.2 1471.48 1004.68 714.633 1988.9 941.116 616.853 387.829 2362.65 432.046 842.9 185.676 1011.57 5472.21 1930.61 486.671 587.7 303.79 128.257 255.2 1443.93 2197.75
internal_count=202900 175320 172270 62387 109883 27580 44182 18205 14301 11901 33628 13279 13763 103560 5006 6895 4442 12752 4442 10247 4523 10554 5724 2771 2453 2652 1933 3791 2400 689 6323 2354 1752 90808 1711 498 2695 377 312 3628 1213 3050
is_linear=0
shrinkage=0.05


Tree=3
num_leaves=54
num_cat=0
split_feature=19 10 12 10 26 19 21 24 9 21 21 10 5 26 19 13 10 9 10 5 26 10 1 24 10 1 21 4 9 10 19 19 10 10 21 5 10 4 10 25 19 10 4 21 30 10 21 19 21 19 10 25 10
split_gain=9526.91 7665.95 1876.67 2774.89 1694.41 1335.84 2266.82 1046.61 699.919 671.74 624.341 544.998 489.339 633.249 427.682 381.983 316.678 273.31 254.921 294.141 254.427 241.302 873.601 198.774 362.197 184.76 161.355 151.1 146.764 139.943 184.698 130.97 115.179 113.831 111.338 76.2751 70.3538 68.0314 42.0611 40.2931 37.9663 36.4757 58.853 26.6669 23.7467 20.5313 20.2683 17.6262 15.2792 9.35137 5.63096 3.02333 0.406768
threshold=5.6666667461395273 5.5000000000000009 1.0000000180025095e-35 2.5000000000000004 0.066964287310838713 8.5000000000000018 85.500000000000014 -2.9999999999999996 2.5000000000000004 111.50000000000001 1.0000000180025095e-35 9.5000000000000018 28.000000000000004 0.091666668653488173 11.500000000000002 0.46875000000000006 10.500000000000002 3.5000000000000004 6.5000000000000009 20.000000000000004 0.091666668653488173 1.5000000000000002 1.0000000180025095e-35 -4.9999999999999991 22.500000000000004 1.5000000000000002 49.000000000000007 13.000000000000002 3.5000000000000004 6.5000000000000009 8.5000000000000018 3.7500000000000004 2.5000000000000004 8.5000000000000018 127.50000000000001 28.000000000000004 19.500000000000004 13.000000000000002 5.5000000000000009 0.36666667461395269 6.3333332538604745 8.5000000000000018 15.000000000000002 71.000000000000014 0.066964287310838713 4.5000000000000009 134.50000000000003 8.5000000000000018 95.500000000000014 6.8333332538604745 7.5000000000000009 0.45000000298023229 29.500000000000004
decision_type=2 2 2 2 2 2 2 2 2 2 2 2 2 2 2 2 2 2 2 2 2 2 2 2 2 2 2 2 2 2 2 2 2 2 2 2 2 2 2 2 2 2 2 2 2 2 2 2 2 2 2 2 2
left_child=7 2 3 21 29 8 -7 10 -5 14 23 12 13 -6 48 -9 41 36 19 32 49 -2 -23 52 28 33 -14 -26 -25 30 35 -19 -17 -20 -32 -3 -18 -16 -21 -27 -22 50 -43 47 -45 51 -47 -31 -4 -13 -12 -11 -1
right_child=1 4 9 5 11 6 -8 15 -10 45 16 20 26 -15 37 18 17 31 25 38 40 22 -24 24 27 39 -28 -29 -30 43 34 -33 -34 -35 -36 -37 -38 -39 -40 -41 -42 42 -44 44 -46 46 -48 -49 -50 -51 -52 -53 -54
leaf_value=0.076560656610219394 0.08220794822787704 -0.074084709697434775 0.0073762961296858932 0.029172854901609008 -0.063283042429461214 -0.068877802755198572 0.068055184853894612 -0.086263570662917038 -0.05138319173669588 -0.086061084462311407 0.079666276045255252 -0.066631790720327669 0.032736248421665719 -0.0015779620491322467 -0.035633376473616793 0.086022840784834381 0.064180223356238561 0.037342037077554464 -0.0077730113536476483 0.052749606756800009 0.015905690405525797 -0.0052541208798102213 0.079316619910435149 0.039069119922889306 -0.0020761984230066961 0.021149375950631703 -0.042430194818109168 -0.084465783883733048 0.002893970586576756 -0.0735115488708009 -0.082188072479933538 -0.0024493166380828973 -0.0076806523552608351 -0.064756106161645774 0.063255176165348856 -0.012992193153158041 0.042215762686954948 -0.079755710928208545 0.028946707007445172 -0.00191687949109756 -0.028700585996265474 0.076989595411355971 0.050000814469630533 -0.07634802464156043 0.042754648928776201 -0.037169721344426053 -0.087078790289556493 -0.081592947135284546 -0.014196463178623052 -0.08022770255262833 0.071586067631771597 -0.043787731415740744 0.063884289030933461
leaf_weight=112.74119826778769 1090.297276603058 63.949661178514361 740.96831326466054 2380.2463157996535 768.40441461931914 1287.4233929887414 393.94561522826552 92.545321536250412 303.11687827529386 461.72388341184705 957.80105286464095 241.96701752301306 522.89697019197047 905.16871464415453 161.21512585948221 34.315632604062557 1460.5035410001874 834.05616790428758 224.51737596374005 711.43388509005308 61.697704966180027 462.79532723594457 895.35291027277708 848.24099047947675 115.23261138051748 508.47808060562238 81.727961841970682 106.94912744499743 419.27783080097288 1040.3037268538028 391.8242295961827 274.39433339284733 458.17359079234302 143.34471500385553 12.877815430052577 243.99854219518602 499.64556815475225 198.79068419593386 258.50049220025539 300.44760369509459 199.7604910149239 412.32075092941523 419.29322626069188 6.6301478170789769 8.2735405573621374 54.221971413120627 35.265974028967321 3170.9053250355646 91.219555928371847 481.509080207441 475.37016405910254 7.9539249595254651 68.253804486244917
leaf_count=255 1690 925 3309 6441 13148 18168 389 3032 3679 7538 781 4052 1204 5337 2859 90 1406 1540 1395 1143 284 3233 1360 2341 606 1296 413 1595 2193 18397 7990 1610 2219 2396 81 1252 535 4431 609 1099 2286 355 530 221 97 566 470 55416 621 9352 410 111 144
internal_value=-4.43339e-05 -0.0228881 0.0101969 0.022064 -0.0574335 -0.0018369 -0.03677 0.0392935 0.0200555 -0.0359522 0.0495309 -0.0294594 -0.0160078 -0.0299331 -0.0147134 0.0130349 0.0578867 0.0473834 0.0165501 0.0304823 -0.0605209 0.0646563 0.0505124 0.0228351 0.0167915 -0.000770806 0.0225144 -0.0419583 0.0271185 -0.0759058 -0.0552196 0.0274939 -0.000980369 -0.0301065 -0.0774032 -0.0258938 0.0586084 -0.0601645 0.0464473 0.0125842 -0.0181351 0.0720885 0.0634645 -0.079379 -0.0113848 -0.0811192 -0.0576384 -0.0796157 0.00499142 -0.0757857 0.0770414 -0.0854504 0.0721851
internal_weight=26502.3 16766.4 8564.54 6813.18 8201.9 4364.73 1681.37 9735.84 2683.36 1751.36 7004.08 3263.13 2278.2 1673.57 1192.19 2731.76 5333.38 3068.6 2639.21 1462.42 984.934 2448.45 1358.15 1670.7 1489.7 1176.79 604.625 222.182 1267.52 4938.76 712.65 1108.45 492.489 367.862 404.702 307.948 1960.15 360.006 969.934 808.926 261.458 2264.79 831.614 4226.11 14.9037 559.166 89.4879 4211.21 832.188 723.476 1433.17 469.678 180.995
internal_count=202900 175320 54865 34960 120455 28677 18557 27580 10120 19905 14301 36076 20102 18485 11220 13279 7167 5091 10247 4061 15974 6283 4593 7134 6735 6186 1617 2201 4534 84379 10248 3150 2309 3791 8071 2177 1941 7290 1752 2395 2570 2076 885 74131 318 8685 1036 73813 3930 13404 1191 7649 399
is_linear=0
shrinkage=0.05


Tree=4
num_leaves=41
num_cat=0
split_feature=19 17 18 19 24 22 9 20 17 19 19 17 13 19 17 18 5 17 4 2 18 4 0 17 22 17 17 19 17 17 4 19 17 19 25 19 18 4 22 19
split_gain=7944.03 7954.82 3484.36 1765.12 915.545 768.174 759.989 752.967 510.637 618.153 436.393 413.786 319.173 204.865 404.306 204.314 235.354 196.44 179.652 133.599 112.861 107.972 103.913 103.492 210.353 95.7114 92.9633 82.5699 82.605 75.0541 66.499 55.3562 45.9998 40.1972 36.4213 16.3026 12.2365 6.6351 3.84269 3.74499
threshold=5.6666667461395273 1.0000000180025095e-35 5.5000000000000009 8.5000000000000018 -2.9999999999999996 2.2539683580398564 1.5000000000000002 5.5000000000000009 7.5000000000000009 3.7500000000000004 9.5000000000000018 1.5000000000000002 0.46875000000000006 3.4166666269302373 15.500000000000002 4.5000000000000009 20.000000000000004 13.500000000000002 13.000000000000002 3.0000000000000004 1.0000000180025095e-35 17.000000000000004 4.5000000000000009 4.5000000000000009 0.94444444775581371 6.5000000000000009 3.5000000000000004 7.5000000000000009 7.5000000000000009 17.500000000000004 15.000000000000002 8.5000000000000018 2.5000000000000004 4.8333332538604745 0.70833334326744091 7.5000000000000009 3.5000000000000004 19.000000000000004 0.58333334326744091 8.5000000000000018
decision_type=2 2 2 2 2 2 2 2 2 2 2 2 2 2 2 2 2 2 2 2 2 2 2 2 2 2 2 2 2 2 2 2 2 2 2 2 2 2 2 2
left_child=4 -2 3 6 8 10 26 31 23 13 -5 -8 -6 29 -15 16 20 21 -7 25 -14 -11 -21 34 33 -17 -3 28 -9 -10 -26 35 -18 -25 36 -4 -1 -33 -36 -29
right_child=1 2 7 5 12 18 11 27 9 17 -12 -13 15 14 -16 19 32 -19 -20 22 -22 -23 -24 24 30 -27 -28 39 -30 -31 -32 37 -34 -35 38 -37 -38 -39 -40 -41
leaf_value=0.075305023609718524 0.076977098961867829 0.05627720917378437 0.0090989279328041149 -0.026971746121579127 -0.082915803554816522 -0.043654402437849044 0.032980895233289002 -0.041852566506083239 0.056324368789624074 0.013540309672366828 -0.071747394344166646 -0.012342218828507986 0.067417041416086496 0.034542686710342406 -0.067879086681357767 -0.0076635668556922056 0.054851894808794432 -0.079726488655334188 -0.0014742577229578911 -0.076057380970466937 -0.0034670154205797884 -0.042246794841959825 0.015671166708571969 0.018067023845095172 0.069773716558032231 -0.061632350404951686 0.026075889235583096 -0.072544216601287778 -0.071364185652269332 0.034306544945188727 0.046465072045795849 -0.030204755406927759 0.032321578213555378 -0.041947932037483419 0.01971623785049989 -0.011342250776709599 0.064941766082343019 -0.057056449028092253 0.045987939915327285 -0.077529903985705265
leaf_weight=992.4767148103565 1810.355192524381 583.12864730227739 199.98390037193894 815.49158088723198 85.254592388868332 325.13718075747602 597.03744356799871 390.3736343216151 1573.3765179663897 316.17017481476068 1647.7643729208503 3187.1985985126812 60.802327059209347 831.74676693975925 107.99559404142201 218.21605205349624 391.15399514511228 98.126788127236068 1118.6496879714541 31.636317699216306 613.04069619812071 118.36939797643572 571.24912942387164 229.59373892098665 756.04206996969879 131.32992526004091 458.85780966375023 826.42668306687847 632.77234419505112 523.49660258740187 534.85385298170149 131.46284550032578 559.81884778290987 30.744589600712061 34.860476333647966 188.44689783104695 514.77513840422034 30.181763796601444 27.316955976188183 2871.3286115307128
leaf_count=988 3050 991 893 9343 3032 4221 2042 5194 1915 1239 32205 19737 172 1635 1240 1395 692 1789 8527 545 2599 1018 1388 717 808 2396 1100 16418 12244 1264 811 2185 1060 140 89 1248 601 603 47 55319
internal_value=-2.09775e-05 -0.0216235 -0.0343747 -0.0149951 0.0365058 -0.0399739 0.00522945 -0.0664741 0.0463743 0.0334385 -0.0569428 -0.00518346 0.0116998 0.0421519 0.0227074 0.0148626 0.0256361 -0.0162113 -0.0110002 -0.00351908 0.00301202 -0.00170683 0.0107315 0.0611527 0.0518992 -0.0280727 0.0430201 -0.072924 -0.060161 0.0508488 0.0601636 -0.0110786 0.0416419 0.010827 0.0702568 -0.000808914 0.0718144 -0.0355691 0.0318828 -0.0764369
internal_weight=25167 15814.6 14004.2 8733.27 9352.45 3907.04 4826.22 5270.98 6689.95 3569.28 2463.26 3784.24 2662.5 3036.62 939.742 2577.25 1624.82 532.666 1443.79 952.431 673.843 434.54 602.885 3120.66 1551.23 349.546 1041.99 4720.9 1023.15 2096.87 1290.9 550.075 950.973 260.338 1569.43 388.431 1507.25 161.645 62.1774 3697.76
internal_count=202900 175320 172270 78166 27580 54296 23870 94104 14301 10100 41548 21779 13279 6054 2875 10247 4523 4046 12748 5724 2771 2257 1933 4201 2476 3791 2091 89175 17438 3179 1619 4929 1752 857 1725 2141 1589 2788 136 71737
is_linear=0
shrinkage=0.05


Tree=5
num_leaves=49
num_cat=0
split_feature=19 17 18 19 20 24 22 22 17 19 19 22 17 10 9 5 17 22 11 4 4 18 17 22 4 19 10 4 19 17 0 18 19 4 17 19 17 10 17 10 17 9 17 4 10 4 18 10
split_gain=6876.48 7040.47 2927.63 1218.74 840.228 735.343 632.395 562.434 466.077 594.193 388.861 325.42 323.289 318.973 283.466 257.886 246.971 224.575 188.75 164.795 156.22 150.789 134.493 207.535 122.724 88.5478 105.141 71.8146 71.1404 69.7559 54.7114 49.24 46.2554 43.8694 35.1443 34.6057 17.9438 17.7524 13.7172 11.1277 9.78321 37.4042 9.74502 9.16149 8.32033 5.22152 28.7432 1.96079
threshold=5.6666667461395273 1.0000000180025095e-35 4.5000000000000009 8.5000000000000018 5.5000000000000009 -2.9999999999999996 2.2539683580398564 1.8888888955116274 9.5000000000000018 3.4166666269302373 9.5000000000000018 2.2539683580398564 5.5000000000000009 19.500000000000004 1.5000000000000002 20.000000000000004 6.5000000000000009 0.58333334326744091 3.5000000000000004 13.000000000000002 13.000000000000002 1.5000000000000002 3.5000000000000004 0.94444444775581371 17.000000000000004 2.8333333730697636 20.500000000000004 15.000000000000002 8.5000000000000018 2.5000000000000004 3.5000000000000004 5.5000000000000009 1.8750000000000002 2.0000000000000004 6.5000000000000009 8.5000000000000018 22.500000000000004 2.5000000000000004 10.500000000000002 21.500000000000004 11.500000000000002 4.5000000000000009 8.5000000000000018 19.000000000000004 11.500000000000002 4.5000000000000009 1.5000000000000002 6.5000000000000009
decision_type=2 2 2 2 2 2 2 2 2 2 2 2 2 2 2 2 2 2 2 2 2 2 2 2 2 2 2 2 2 2 2 2 2 2 2 2 2 2 2 2 2 2 2 2 2 2 2 2
left_child=5 -2 3 7 28 8 10 15 22 25 -5 35 17 24 -9 -3 -13 21 20 -8 34 33 45 31 -11 36 -27 -25 38 37 -31 -24 -23 -7 -14 -6 -10 -19 -4 -15 42 -42 -20 -30 -22 46 -1 -47
right_child=1 2 4 6 11 12 19 14 9 13 -12 16 18 39 -16 -17 -18 29 40 -21 44 32 23 27 -26 26 -28 -29 43 30 -32 -33 -34 -35 -36 -37 -38 -39 -40 -41 41 -43 -44 -45 -46 47 -48 -49
leaf_value=0.079873100721070567 0.074282564077294014 -0.0058196924000465068 0.0042194010138118833 -0.020920262410642695 -0.065233556870895257 0.071614658324890113 -0.040797662117346589 0.047042721886804084 0.062575377094333778 0.014538408049921897 -0.067845376358005777 -0.011102431103269771 -0.029494741783705748 -0.04258779995514822 0.010160763580103179 -0.054531111968430628 -0.064169501880589799 0.075507043264187404 0.0030383246874764324 0.0022206384194918979 0.016023000772774 0.0013466760007354941 0.033494179456934246 0.062882191071514909 -0.062336252130780395 0.046435471305281917 0.012182025326660389 0.044531819365320399 -0.028079268824687167 -0.048768569811636388 0.027647345661460244 0.0011304804620326265 -0.081265020301795762 0.0019902577733310832 -0.067447204234540356 -0.074573911844507609 0.033070607612053465 0.045438387247270839 -0.018888721235976038 -0.075726575666867094 0.014318853551658279 -0.037427209064181136 0.018378813006687287 -0.057050670839850028 -0.013527726639493596 0.07577547525333278 0.0062242838236000464 0.068823579425396797
leaf_weight=36.968721456825733 1727.7064223205671 908.32337816432118 455.00331197166815 667.30514785903506 1720.6875051530078 26.548593688756227 283.84557824837975 697.98143409006298 577.35101487487555 700.70478153601289 1312.6775141613325 440.25146531360224 92.022841005120426 38.768854931928217 2051.2198764521163 387.02846629987471 437.28794172918424 58.082748167216778 172.43740374036133 1017.977905292064 104.77285378612578 21.271995078772306 271.0087382318452 1397.7551786471158 55.062126589007676 747.68157531134784 321.59118196927011 889.37046869564801 190.40634511248209 23.1919189915061 809.42978310957551 207.64783711452037 79.479314116761088 127.85722999414429 199.3081903795246 2740.4816305809654 61.395027220249176 453.00667874515057 73.725936314091086 123.71416969969869 108.85859745601192 50.184071950148791 263.13356156367809 33.091117129428312 29.732614419888705 454.19352368637919 20.860635522753 443.22913371492177
leaf_count=73 3128 4064 1970 7271 33596 57 3652 1030 813 2272 26553 4134 1049 475 7414 5611 8610 134 396 6905 309 147 618 1644 726 948 823 1535 2904 270 2062 951 861 472 5072 57309 174 947 723 2226 328 382 535 742 185 446 65 447
internal_value=-0.000145577 -0.020691 -0.0329255 -0.0116261 -0.0585381 0.0345544 -0.0342607 0.00674259 0.043752 0.0276041 -0.0520515 -0.065508 0.0122562 -0.00482554 0.0195401 -0.0204085 -0.037595 0.0262841 -0.00972251 -0.00717922 -0.0350951 -0.0166531 0.0551373 0.0495045 0.00885605 0.0450341 0.0361592 0.0557712 -0.00904361 0.0344475 0.0254569 0.0194964 -0.063932 0.0143775 -0.0556182 -0.0709879 0.0598034 0.0490061 0.000958194 -0.068159 0.00846823 -0.00210961 0.012338 -0.0326261 0.00940225 0.0713721 0.0539483 0.072428
internal_weight=24111.6 15145 13417.3 7326.36 6090.94 8966.62 3281.81 4044.55 6347.3 2626.27 1979.98 5338.71 2619.32 918.25 2749.2 1295.35 877.539 1598.87 1020.45 1301.82 425.836 255.157 3721.03 2765.78 755.767 1708.02 1069.27 2287.13 752.227 1343.71 832.622 478.657 100.751 154.406 291.331 4461.17 638.746 511.089 528.729 162.483 594.614 159.043 435.571 223.497 134.505 955.252 57.8294 897.423
internal_count=203058 175616 172488 62500 109988 27442 44381 18119 14236 8457 33824 103649 13206 5699 8444 9675 12744 4950 8256 10557 6615 1537 5779 4748 2998 2758 1771 3179 6339 3413 2332 1569 1008 529 6121 90905 987 1081 2693 2701 1641 710 931 3646 494 1031 138 893
is_linear=0
shrinkage=0.05


Tree=6
num_leaves=38
num_cat=0
split_feature=19 17 10 19 20 21 1 21 20 22 23 22 17 17 12 23 10 16 17 19 17 10 9 22 19 17 21 10 10 4 17 21 10 22 21 10 10
split_gain=6075.28 6045.83 2257.1 1226.5 880.045 641.706 1759.28 583.62 496.546 464.264 416.72 308.156 288.673 265.075 197.594 196.195 187.97 160.986 159.792 279.029 144.89 120.796 118.064 112.765 49.883 49.3856 42.3115 35.3292 24.9856 16.9889 16.2143 15.89 13.7941 10.5036 6.28447 4.64962 1.26168
threshold=5.1666667461395273 1.0000000180025095e-35 6.5000000000000009 8.5000000000000018 5.5000000000000009 84.500000000000014 1.0000000180025095e-35 1.0000000180025095e-35 9.5000000000000018 2.2539683580398564 1.8750000000000002 2.2539683580398564 6.5000000000000009 2.5000000000000004 4.5000000000000009 2.2916666269302373 26.500000000000004 3.5000000000000004 4.5000000000000009 4.2500000000000009 5.5000000000000009 15.500000000000002 2.5000000000000004 2.3428572416305546 8.5000000000000018 8.5000000000000018 71.000000000000014 4.5000000000000009 3.5000000000000004 11.000000000000002 10.500000000000002 119.50000000000001 8.5000000000000018 0.45000000298023229 95.500000000000014 7.5000000000000009 29.500000000000004
decision_type=2 2 2 2 2 2 2 2 2 2 2 2 2 2 2 2 2 2 2 2 2 2 2 2 2 2 2 2 2 2 2 2 2 2 2 2 2
left_child=7 34 3 9 24 8 -7 15 -5 13 14 26 -13 -3 31 16 17 20 23 21 -1 -20 -19 35 30 -21 -6 -11 -25 -18 -4 33 -26 -9 -2 -12 -17
right_child=1 2 4 5 11 6 -8 10 -10 27 18 12 -14 -15 -16 36 29 22 19 25 -22 -23 -24 28 32 -27 -28 -29 -30 -31 -32 -33 -34 -35 -36 -37 -38
leaf_value=0.0033936197363279973 0.072903657813621389 0.013633078804997735 0.0017450173957580502 -0.023344080284902338 -0.068720086630387825 0.059941518494653435 -0.063596767350960676 0.0046358788304623538 -0.070600442595882357 0.062065863854805253 0.06926205339322887 0.0014328067585581018 -0.061074816303481751 -0.014645949632083802 -0.078710665133340948 0.070213482101370295 -0.01710417283363997 0.044818929280866247 0.05182650370846207 0.0026712980452637636 -0.054480420293070909 0.031847664227683786 0.011252994824257914 0.064195393556710709 -0.016275958703120864 -0.061279833985780664 -0.014693277446170687 0.036445194340174812 0.038575678684723863 -0.069343604212462842 -0.021323912163315292 -0.023949523226940883 -0.043266103445877481 0.019312001577517113 0.061342428728849596 0.061461487817178521 0.055532611125838419
leaf_weight=404.27228013053536 1437.0142608331516 1540.9588603177108 577.11981861665845 984.81288090907037 4034.9776003996376 553.635512329638 598.87427295628004 177.22678326256573 1280.6901591382921 191.46389352530241 819.82492102310061 333.15947260754183 412.96377756854054 1790.2867992792744 63.860668548615649 98.220854811370373 20.57008246704936 352.58682018052787 1968.9558548261411 305.64116418268532 146.52264584158547 1243.1446108501405 1018.0552977891639 114.31709208711982 96.132216060301289 32.478343567810953 37.429903754265979 488.28842675499618 676.36064886953682 80.149609795771539 86.700327078811824 26.67392086237669 97.82026923331432 402.52921282686293 180.6665650382638 412.672462945804 58.531528748571873
leaf_count=2340 2917 5819 2386 14191 85924 730 11960 477 23562 308 839 2265 8610 11295 2668 265 89 849 2546 1751 2730 2713 4719 240 1284 632 1127 722 1094 1370 823 67 2023 967 211 415 130
internal_value=-0.000137732 -0.0195127 -0.0307711 -0.0126293 -0.0545072 -0.0346328 -0.00424736 0.0337281 -0.0500797 0.00612393 0.0415028 -0.0628124 -0.0331926 -0.00156304 0.00423988 0.0114383 0.0072421 0.0107458 0.0459819 0.0395615 -0.0120638 0.0441082 0.0199176 0.0572206 -0.00782835 -0.00361942 -0.0682285 0.0437496 0.0423625 -0.0589969 -0.00128799 0.0130985 -0.0300662 0.0148499 0.0716543 0.0667062 0.0651501
internal_weight=23145.6 14723 13105.3 7429.01 5676.3 3418.01 1152.51 8422.59 2265.5 4011 6243.69 4818.53 746.123 3331.25 670.291 2178.91 2022.16 1921.44 5573.4 3550.22 550.795 3212.1 1370.64 2023.18 857.773 338.12 4072.41 679.752 790.678 100.72 663.82 606.43 193.952 579.756 1617.68 1232.5 156.752
internal_count=203058 176157 173029 68587 104442 50443 12690 26901 37753 18144 14409 97926 10875 17114 4179 12492 12097 10638 10230 7642 5070 5259 5568 2588 6516 2383 87051 1030 1334 1459 3209 1511 3307 1444 3128 1254 395
is_linear=0
shrinkage=0.05


Tree=7
num_leaves=40
num_cat=0
split_feature=19 17 18 19 20 21 2 21 22 20 23 17 12 11 17 19 10 11 17 17 22 19 17 22 19 10 17 10 6 18 13 21 18 10 10 21 22 19 10
split_gain=5252.99 5191.26 2268.3 1114.64 633.878 598.935 1499.05 513.213 467.826 448.632 334.696 316.236 175.74 171.838 152.942 226.329 146.147 122.804 128.739 112.881 111.011 82.22 75.7757 75.083 47.6978 42.5996 41.8711 22.9295 18.3977 15.1304 12.011 9.32265 13.3572 7.85887 6.88207 6.46886 5.80884 5.61771 1.50099
threshold=5.1666667461395273 1.0000000180025095e-35 5.5000000000000009 8.5000000000000018 5.5000000000000009 84.500000000000014 1.5000000000000002 1.0000000180025095e-35 2.2539683580398564 6.5000000000000009 1.8750000000000002 2.5000000000000004 4.5000000000000009 5.5000000000000009 4.5000000000000009 4.2500000000000009 26.500000000000004 3.5000000000000004 6.5000000000000009 11.500000000000002 2.3428572416305546 7.5000000000000009 9.5000000000000018 2.2539683580398564 8.5000000000000018 4.5000000000000009 8.5000000000000018 4.5000000000000009 11.000000000000002 7.5000000000000009 0.78125000000000011 119.50000000000001 1.5000000000000002 7.5000000000000009 10.500000000000002 95.500000000000014 0.94444444775581371 8.5000000000000018 29.500000000000004
decision_type=2 2 2 2 2 2 2 2 2 2 2 2 2 2 2 2 2 2 2 2 2 2 2 2 2 2 2 2 2 2 2 2 2 2 2 2 2 2 2
left_child=7 35 3 8 24 9 -7 13 11 -5 12 -3 31 16 20 19 17 18 -1 -16 36 23 -19 -6 29 -10 -17 -22 -18 -4 34 32 -9 -26 -15 -2 -12 -23 -32
right_child=1 2 4 5 21 6 -8 10 25 -11 14 -13 -14 30 15 26 28 22 -20 -21 27 37 -24 -25 33 -27 -28 -29 -30 -31 38 -33 -34 -35 -36 -37 -38 -39 -40
leaf_value=0.00092252317906492236 0.070516329703563321 0.012847968886163167 0.005917134037024506 -0.0078435465750860446 -0.061537397928441186 0.054630495190232255 -0.060496395889869992 0.034363881668242814 0.058218970123400417 -0.060631458983537723 0.058583666111206724 -0.016587326232189805 -0.076162230113801938 0.045158508457306026 0.048566583559144436 0.0030249609036448631 -0.010244463217614849 0.028991316108285294 -0.061244676704726601 0.029063191810757966 0.049440853799128257 -0.06372064834175252 0.0047563896621739066 -0.030443427687341387 0.00070428087391367737 0.030777637106884293 -0.058082375993476237 0.031855001762025818 -0.065702661926322112 -0.01275824838784073 0.067665847910147445 -0.016169802470224367 0.011611449138890572 -0.038062281472861566 0.0045577446243010517 0.05862071129838551 0.067044801222003556 -0.069723022324537573 0.052425504546738201
leaf_weight=445.48397399811074 1330.5142705952749 1546.0116768009029 278.00044901715592 517.12397309485823 566.29256797884591 548.13931668177247 581.856462914031 74.352121941745281 183.66690450161695 1823.5588101290632 415.81186016462743 2223.3730910017621 59.488481607986614 32.107010938227177 1910.8987735174596 297.49841820122674 19.449706140905619 682.98615415254608 101.37440271303058 1226.0423361146823 339.77827811613679 693.77447748649865 612.32203672453761 301.59479090431705 14.198226703680119 647.25915423687547 29.931939324364066 437.21031477395445 74.361258783377707 176.33647820120677 91.371304910629988 24.611307293176651 483.29602867458016 130.31979689886793 16.020094202831388 171.85033873468637 758.74535134062171 2394.9544527905528 56.40480649471283
leaf_count=2787 2917 5819 1134 5387 12689 730 12137 147 308 36254 494 16741 2668 95 2524 1751 89 2217 2283 2735 589 16202 3192 4700 213 1177 632 745 1370 1334 263 67 1297 2580 66 211 760 55624 130
internal_value=-0.000165999 -0.0186338 -0.0290897 -0.0131644 -0.0572945 -0.0345526 -0.0046472 0.0316929 0.00297471 -0.0489796 0.0391179 -0.00451292 0.00495794 0.0105845 0.043163 0.0368294 0.00605218 0.00916567 -0.0106834 0.0409572 0.0543792 -0.0645493 0.0175513 -0.0507853 -0.009326 0.0369119 -0.00270576 0.0396054 -0.0544866 -0.00133224 0.0550905 0.0133708 0.0147101 -0.0342406 0.0321134 0.0691989 0.0641061 -0.0683975 0.0622738
internal_weight=22318.4 14128.8 12626.5 8070.99 4555.47 3470.68 1130 8189.55 4600.31 2340.68 6057.67 3769.38 641.748 2131.88 5415.92 3464.37 1935.98 1842.17 546.858 3136.94 1951.55 3956.62 1295.31 867.887 598.855 830.926 327.43 776.989 93.811 454.337 195.903 582.259 557.648 144.518 48.1271 1502.36 1174.56 3088.73 147.776
internal_count=203058 176157 173029 78553 94476 54508 12867 26901 24045 41641 14409 22560 4179 12492 10230 7642 11938 10479 5070 5259 2588 89215 5409 17389 5261 1485 2383 1334 1459 2468 554 1511 1444 2793 161 3128 1254 71826 393
is_linear=0
shrinkage=0.05


Tree=8
num_leaves=39
num_cat=0
split_feature=19 17 18 19 20 22 21 21 22 19 13 18 9 5 13 0 24 17 19 10 9 21 1 1 11 9 17 21 21 10 19 6 19 10 21 10 10 6
split_gain=4592.84 4532.68 2100.8 780.783 602.402 448.277 1040.85 439.479 382.742 320.019 315.093 206.748 181.244 173.2 160.795 157.318 147.962 144.957 208.036 124.896 123.737 118.225 111.693 106.461 93.9741 97.1116 96.066 51.1479 27.2146 23.3855 22.5299 19.8824 16.3861 7.00025 6.76328 6.09273 1.75613 0.388046
threshold=5.6666667461395273 1.0000000180025095e-35 4.5000000000000009 8.5000000000000018 7.5000000000000009 2.2539683580398564 53.500000000000007 1.0000000180025095e-35 1.8888888955116274 9.5000000000000018 0.93750000000000011 7.5000000000000009 1.5000000000000002 20.000000000000004 0.46875000000000006 5.5000000000000009 -4.9999999999999991 4.5000000000000009 4.8333332538604745 26.500000000000004 3.5000000000000004 154.50000000000003 1.5000000000000002 1.5000000000000002 3.5000000000000004 2.5000000000000004 6.5000000000000009 35.500000000000007 119.50000000000001 4.5000000000000009 8.5000000000000018 11.000000000000002 1.3809524178504946 7.5000000000000009 95.500000000000014 6.5000000000000009 29.500000000000004 13.000000000000002
decision_type=2 2 2 2 2 2 2 2 2 2 2 2 2 2 2 2 2 2 2 2 2 2 2 2 2 2 2 2 2 2 2 2 2 2 2 2 2 2
left_child=7 34 3 8 11 9 -7 16 13 -5 14 15 -10 -3 -9 -4 36 22 20 24 -19 30 29 -13 26 -26 -18 -20 32 -12 -6 -21 -16 -24 -2 -30 -1 -33
right_child=1 2 4 5 21 6 -8 10 12 -11 17 23 -14 -15 28 -17 19 18 27 31 -22 -23 33 -25 25 -27 -28 -29 35 -31 -32 37 -34 -35 -36 -37 -38 -39
leaf_value=0.065293517880002816 0.068529200497359555 -0.0060856575780844384 -0.027593194287662666 -0.016487903682918009 -0.057913602399551595 -0.059975723046400323 0.03541230321700245 -0.074113216793026696 0.038792089526145553 -0.061268691486340676 0.046998643331991774 -0.061514747874172583 0.0082704016358307354 -0.047537874306901401 0.047438434077370362 0.013638310509218505 0.0021669966339970563 0.045987070764619414 -0.026501378959145241 -0.0038757451760673108 0.025952799295269609 0.055394713676437141 0.065565005663312331 -0.01808765154776296 0.039903175822787615 0.0085787462011820085 -0.049733910371624918 0.053071170259811576 -0.052653831090061144 0.029563894524111761 -0.068020450367675345 -0.049583276329573031 0.013298424661958425 0.056104028440367409 0.056201741804335674 -0.0087681776547878631 0.049314776282354818 -0.068020657229508133
leaf_weight=85.508925229310989 1231.1350477542728 866.50925283785909 887.15989447652828 621.09589985385537 789.72053234954365 497.70702338824049 669.43395820911974 56.031975421123207 640.77623891737312 1121.0789711130783 363.34556874632835 553.85698328283615 2015.2764403494075 354.7557549122721 36.488885149359703 311.95332346716896 454.97704313974828 1827.9986818451434 163.90782652888447 18.200268924236298 1344.3072729972191 19.559151387773454 709.00135064870119 191.17833110247739 328.28469765512273 1001.4193962989375 109.8191123646684 22.036442132666707 15.646434914320706 433.66304979193956 2485.567954208469 23.07405349239707 658.9423521887511 375.11080657877028 163.73449644818902 16.598893363028765 53.205827996134758 48.058850111905485
leaf_count=263 2917 4064 13491 7271 18279 7873 2684 2677 1030 26553 666 14459 7414 5611 83 1210 2806 2158 1672 89 3670 53 757 2198 849 4721 2358 78 63 744 60298 284 1834 415 211 39 130 1086
internal_value=-0.000184755 -0.018161 -0.0280588 -0.00969396 -0.0518415 -0.029268 -0.00527651 0.0294303 0.00499573 -0.0453256 0.0363243 -0.0297417 0.0156475 -0.0181599 0.0067375 -0.0168601 0.00985716 0.0407469 0.0344964 0.00634841 0.0375097 -0.0648671 0.0518785 -0.0504171 0.00908501 0.0163402 -0.00798586 -0.016811 0.0130631 0.0375674 -0.0656035 -0.0510898 0.0151625 0.0623508 0.067127 -0.0311565 0.0595973 -0.0628796
internal_weight=21566.1 13420.5 12025.6 6786.63 5239 2909.32 1167.14 8145.63 3877.32 1742.17 6023.08 1944.15 2656.05 1221.27 783.709 1199.11 2122.55 5239.37 3358.25 1983.83 3172.31 3294.85 1881.12 745.035 1894.5 1329.7 564.796 185.944 727.677 797.009 3275.29 89.3332 695.431 1084.11 1394.87 32.2453 138.715 71.1329
internal_count=203058 175616 172488 62500 109988 44381 10557 27442 18119 33824 14856 31358 8444 9675 4696 14701 12586 10160 7578 12193 5828 78630 2582 16657 10734 5570 5164 1750 2019 1410 78577 1459 1917 1172 3128 102 393 1370
is_linear=0
shrinkage=0.05


Tree=9
num_leaves=39
num_cat=0
split_feature=30 17 18 30 20 22 21 21 0 30 23 20 18 17 20 20 12 0 24 10 10 4 17 21 1 24 9 18 20 10 30 21 4 18 21 28 10 4
split_gain=4066.51 3969.34 1918.45 684.419 537.333 424.398 849.294 394.682 329.026 280.717 273.229 189.608 172.531 146.116 266.255 160.904 141.418 134.117 131.714 118.918 106.075 105.422 101.809 100.042 92.9848 82.7429 77.9967 72.5767 51.1646 45.3581 22.2621 16.1162 15.7275 12.8196 6.64659 4.52159 1.75759 0.919268
threshold=0.17708333581686023 1.0000000180025095e-35 4.5000000000000009 0.11805555596947671 7.5000000000000009 2.2539683580398564 51.500000000000007 1.0000000180025095e-35 5.5000000000000009 0.10555555671453477 1.8750000000000002 6.5000000000000009 7.5000000000000009 7.5000000000000009 3.2500000000000004 4.7500000000000009 4.5000000000000009 5.5000000000000009 -4.9999999999999991 18.500000000000004 26.500000000000004 15.000000000000002 4.5000000000000009 154.50000000000003 1.5000000000000002 -2.9999999999999996 2.5000000000000004 1.0000000180025095e-35 2.7500000000000004 9.5000000000000018 0.11805555596947671 119.50000000000001 11.000000000000002 2.5000000000000004 95.500000000000014 0.43303571641445165 29.500000000000004 13.000000000000002
decision_type=2 2 2 2 2 2 2 2 2 2 2 2 2 2 2 2 2 2 2 2 2 2 2 2 2 2 2 2 2 2 2 2 2 2 2 2 2 2
left_child=1 34 3 5 12 9 -7 18 11 -3 16 -5 17 15 28 29 31 -4 36 -16 25 -10 -17 30 -14 26 -20 -27 -15 -12 -6 33 -22 -9 -1 -33 -2 -34
right_child=7 2 4 8 23 6 -8 10 21 -11 13 -13 24 14 19 22 -18 -19 20 -21 32 -23 -24 -25 -26 27 -28 -29 -30 -31 -32 35 37 -35 -36 -37 -38 -39
leaf_value=0.066799581237875619 0.063224939363126273 -0.059776949294853381 -0.027539001146043154 -0.00034343894774752038 -0.066286983042048067 -0.057305503870902053 0.031353394158939438 0.026748671240749207 0.036868440035773511 -0.017132365582127825 0.059800368912626758 -0.035385351254938344 -0.059535249670194551 0.058137770748530861 0.013903343783331343 0.036284044895494874 -0.07216793615907055 0.010665558677431622 0.037441527065192305 -0.040705770532173419 -0.0047912856775023634 0.011299492302894523 -0.0080195889317657577 0.048192993662829663 -0.01839882313544992 0.08064849774820082 0.0086165746728405525 -0.0089733721570406082 0.036253533121905164 0.043649760217826676 -0.055963620684997162 -0.040826936622643639 -0.045053054527187601 0.0099897066820124076 0.054324488614427562 -0.0020799259713735353 0.047208905522108227 -0.065731897738656633
leaf_weight=1142.4787793387659 80.396727323532104 1049.1689424851211 870.49545130669139 1573.6757260267623 2323.5642891169991 450.58528579771519 671.17522563994862 148.77333922218531 625.79025763180107 612.37872826156672 1286.1800330746919 510.64104729215614 522.14543400355615 374.18424849864095 688.49416102003306 821.83893588930368 52.577251522568986 311.10633494192734 318.11257021035999 115.53096080105752 16.532053310424089 1136.2314312616363 153.33578391838819 19.343493192456663 188.40302123408765 22.41734298504889 893.34060357976705 635.68965358461719 984.10644204728305 686.31861764192581 747.85142974252813 15.592833038419487 21.373366422951221 499.6840883186087 156.43304090201855 14.514222308993338 51.966595217585564 44.673180067911744
leaf_count=2917 263 26553 13491 6810 60298 7812 2745 421 1030 7271 1523 6888 14459 439 2346 1425 2668 1210 849 1101 89 3391 1165 53 2198 91 4404 5390 1228 1003 18279 54 284 1435 211 48 130 1086
internal_value=-0.000209719 -0.0175153 -0.0267887 -0.00916643 -0.0502273 -0.0280475 -0.00427371 0.0279805 0.00449883 -0.0440827 0.0346455 -0.00894368 -0.0292141 0.0387356 0.0288325 0.0459862 0.00603935 -0.0174753 0.00929376 0.00600949 0.00600334 0.020399 0.0293116 -0.0630762 -0.0486761 0.00846513 0.0162144 -0.00579523 0.0423243 0.0542084 -0.063794 0.0122037 -0.0491056 0.0138776 0.065344 -0.0229756 0.0573756 -0.0598864
internal_weight=20837.1 12911.5 11612.6 6629.65 4982.91 2783.31 1121.76 7925.63 3846.34 1661.55 5841.13 2084.32 1892.15 5109.99 2162.32 2947.67 731.142 1181.6 2084.5 804.025 1952.14 1762.02 975.175 3090.76 710.548 1869.56 1211.45 658.107 1358.29 1972.5 3071.42 678.564 82.5786 648.457 1298.91 30.1071 132.363 66.0465
internal_count=203058 175616 172488 62500 109988 44381 10557 27442 18119 33824 14856 13698 31358 10230 5114 5116 4626 14701 12586 3447 12193 4421 2590 78630 16657 10734 5253 5481 1667 2526 78577 1958 1459 1856 3128 102 393 1370
is_linear=0
shrinkage=0.05


Tree=10
num_leaves=49
num_cat=0
split_feature=19 17 18 19 22 22 20 11 17 19 1 17 17 10 4 5 17 4 22 18 19 17 10 20 22 17 5 18 4 10 17 19 10 22 18 22 4 18 19 25 4 5 25 19 17 1 5 5
split_gain=3548.34 3404.03 1923.89 729.66 452.808 322.621 299.529 267.498 390.59 273.49 241.31 240.821 236.169 192.226 181.347 120.785 140.341 98.6433 89.9455 124.245 69.7841 51.6693 47.5121 45.2861 45.1223 57.7854 44.9549 44.7091 43.0447 37.3626 32.4151 28.6079 27.705 40.4669 20.9807 20.6104 20.2735 17.9629 17.2694 15.9878 15.0764 12.8606 5.23165 2.55599 1.83886 0.802308 0.201067 0.194457
threshold=5.6666667461395273 1.0000000180025095e-35 5.5000000000000009 8.5000000000000018 2.2539683580398564 2.2539683580398564 5.5000000000000009 3.5000000000000004 5.5000000000000009 3.7500000000000004 1.5000000000000002 1.5000000000000002 5.5000000000000009 14.500000000000002 13.000000000000002 10.000000000000002 10.500000000000002 13.000000000000002 0.58333334326744091 1.5000000000000002 7.5000000000000009 2.5000000000000004 17.500000000000004 1.8750000000000002 0.58333334326744091 1.5000000000000002 28.000000000000004 1.0000000180025095e-35 19.000000000000004 5.5000000000000009 7.5000000000000009 7.5000000000000009 7.5000000000000009 0.94444444775581371 9.5000000000000018 0.58333334326744091 2.0000000000000004 7.5000000000000009 0.22500000149011615 0.63333335518836986 9.0000000000000018 20.000000000000004 0.29166667163372045 8.5000000000000018 2.5000000000000004 1.5000000000000002 28.000000000000004 20.000000000000004
decision_type=2 2 2 2 2 2 2 2 2 2 2 2 2 2 2 2 2 2 2 2 2 2 2 2 2 2 2 2 2 2 2 2 2 2 2 2 2 2 2 2 2 2 2 2 2 2 2 2
left_child=7 46 3 5 10 11 31 12 24 15 -5 -3 18 28 -6 23 -17 30 19 27 26 41 -15 -10 25 -9 -8 -1 -11 -7 35 34 44 -34 -4 -14 -21 -33 -27 42 -23 -20 -19 -22 -26 -32 47 -2
right_child=1 2 6 4 14 29 20 8 9 13 -12 -13 17 22 -16 16 -18 39 21 36 43 40 -24 -25 32 38 -28 -29 -30 -31 45 37 33 -35 -36 -37 -38 -39 -40 -41 -42 -43 -44 -45 -46 -47 -48 -49
leaf_value=0.067523571961198542 0.067246183680249913 0.02574827367684376 0.0060661561728466533 -0.05340282965454133 -0.039651764831258485 0.041310297676862485 -0.055085167306383812 0.070028785247338923 0.011857016264665961 0.01494918783058851 -0.0082928717378122786 -0.0094557524928494049 -0.068386144961282341 -0.023015596201755379 0.005877440573035699 0.048343248097425177 0.025624932844508869 0.028473482352008819 0.020338719010617363 0.0020252775153182033 -0.059622780435951241 -0.011078032449553165 -0.070969156560723876 -0.067006488070799841 0.06789228176234828 0.055685098008754035 -0.0293301247516791 -0.00090373896917171842 -0.05315098812030164 0.019666264246349902 -0.056045510138152649 -0.016573934563367986 0.027046890396730819 0.055562619580956596 -0.047957636530682447 -0.015771813428729405 -0.071010988523167146 -0.041230738024502424 0.0074944436992118932 -0.031318658452821932 0.017897578460810731 0.042163015792550142 0.0064240008626937134 -0.064572174612932395 0.060229200583800241 -0.070956723747409231 0.065417167055439152 0.058565786855351964
leaf_weight=34.450588726438582 82.032555796205997 577.94131000479683 146.82559400470927 1500.3640776341781 286.99798614089377 427.17765985429287 484.21193167404272 66.527788706123829 565.99069704697467 642.19973592925817 370.25659977621399 3017.5324993450195 22.092623631702736 140.57967828400433 907.8896439995151 1102.1290463507175 1790.4756067367271 53.603658974170685 88.850199643522501 10.817139796912668 583.74855281366035 46.991799417417496 82.593047007918358 17.806166510097682 295.70906285196543 20.784686496481299 268.59100441099145 72.575860496610403 23.079693617299199 381.83626910671592 81.48886167537421 196.2775128884241 163.57762884907424 575.0220415443182 19.45689998799935 104.23036630195566 67.399748064577579 121.07325687189586 133.08296267176047 18.848505700007081 723.2569206347689 343.84522627200931 55.945063453167677 1973.1816569034709 339.66170922107995 43.266033518360928 829.95578122884035 267.54730055388063
leaf_count=190 236 2057 675 38158 4220 650 12661 113 1799 1957 3381 20385 729 1027 8584 1696 4860 164 355 80 16308 429 1770 145 370 49 4734 273 231 875 2028 1911 349 775 250 1253 962 2169 383 103 1895 703 245 55391 441 2189 2093 722
internal_value=-0.000145267 -0.0166713 -0.025136 -0.0104065 -0.0291336 0.00262998 -0.0541299 0.0264653 0.031532 0.023784 -0.044486 -0.00379003 0.00937316 -0.000967578 -0.00507797 0.0301095 0.0342964 -0.0255314 0.0189298 -0.0134284 -0.0595009 0.0239238 -0.0410222 0.00933261 0.0527124 0.0314227 -0.0459538 0.0214971 0.0125029 0.0311379 -0.0437087 -0.0173165 0.0560984 0.0492991 -0.000474236 -0.0254776 -0.0609491 -0.0260965 0.0143539 0.0100384 0.0161113 0.0377503 0.0174183 -0.0634679 0.0639046 -0.0617797 0.0641066 0.060803
internal_weight=20169.8 12442.9 11263.4 7470 3065.51 4404.49 3793.37 7726.88 5959.22 4364.85 1870.62 3595.47 1767.66 888.452 1194.89 3476.4 2892.6 379.475 1388.19 185.243 3309.73 1202.94 223.173 583.797 1594.37 220.395 752.803 107.026 665.279 809.014 251.078 483.633 1373.97 738.6 166.282 126.323 78.2169 317.351 153.868 128.397 770.249 432.695 109.549 2556.93 635.371 124.755 1179.54 349.58
internal_count=203023 175460 172409 78310 54343 23967 94099 27563 15965 13485 41539 22442 11598 4985 12804 8500 6556 6711 4887 1505 89094 3382 2797 1944 2480 545 17395 463 2188 1525 6199 5005 1935 1124 925 1982 1042 4080 432 512 2324 1058 409 71699 811 4217 3051 958
is_linear=0
shrinkage=0.05


Tree=11
num_leaves=40
num_cat=0
split_feature=19 17 18 19 21 12 21 20 22 20 24 17 10 14 19 24 10 10 11 9 10 9 17 19 21 10 10 19 10 4 4 21 21 21 18 10 21 10 17
split_gain=3158.01 3034.06 1752.44 636.552 447.889 1077.11 340.566 304.342 289.808 279.559 235.351 213.353 208.309 147.218 139.028 105.663 98.138 86.8114 84.4396 83.6647 72.2682 71.1346 70.977 69.0636 65.2404 45.074 33.7775 30.6539 28.3742 55.2762 22.145 13.5325 13.2518 11.9807 10.5149 7.88939 4.05374 1.17923 1.11857
threshold=5.6666667461395273 1.0000000180025095e-35 5.5000000000000009 8.5000000000000018 77.500000000000014 1.0000000180025095e-35 1.0000000180025095e-35 6.5000000000000009 2.2539683580398564 5.5000000000000009 -2.9999999999999996 2.5000000000000004 10.500000000000002 0.53125000000000011 3.7500000000000004 -4.9999999999999991 5.5000000000000009 25.500000000000004 3.5000000000000004 2.5000000000000004 17.500000000000004 3.5000000000000004 5.5000000000000009 7.5000000000000009 69.500000000000014 9.5000000000000018 4.5000000000000009 8.5000000000000018 7.5000000000000009 17.000000000000004 13.000000000000002 40.500000000000007 7.5000000000000009 192.50000000000003 7.5000000000000009 29.500000000000004 98.500000000000014 6.5000000000000009 22.500000000000004
decision_type=2 2 2 2 2 2 2 2 2 2 2 2 2 2 2 2 2 2 2 2 2 2 2 2 2 2 2 2 2 2 2 2 2 2 2 2 2 2 2
left_child=6 36 3 8 7 -6 15 -5 11 27 12 -3 28 16 19 38 24 18 22 -14 -16 -20 -17 25 -12 -11 -10 31 37 -30 35 -4 -18 -25 -29 -19 -2 -8 -1
right_child=1 2 9 4 5 -7 10 -9 26 23 13 -13 14 -15 20 17 32 30 21 -21 -22 -23 -24 33 -26 -27 -28 34 29 -31 -32 -33 -34 -35 -36 -37 -38 -39 -40
leaf_value=0.056842266832489864 0.064204268574503204 0.010636438122253858 -0.018260216157542943 -0.007198352900228017 0.046590170347633582 -0.05228440273240658 0.064472651870996253 -0.054091721339610072 0.048722140537758363 -0.029163878028200942 0.036398723814204004 -0.014194621267686969 0.055962172080177633 -0.069664014906559865 0.0070147486510858939 0.0014235106363665098 -0.0272434932606993 -0.0042864610420305354 0.023435835351778327 0.029254949077562171 -0.070190865729878191 -0.0012893234022271066 -0.039985469535139054 -0.062280058831152355 -0.031162302617653875 -0.054839804730733112 0.02387399764417051 -0.02418525610970158 0.052849741497018522 0.020793549159659207 -0.06480423364304333 0.0018607942156413351 0.0083927730017643656 0.044362090212281151 -0.05298906950314082 -0.04692778064016382 0.052617673900823704 0.05757335506113434 0.039921255916949352
leaf_weight=91.269500866532326 980.10129701066762 1475.9702459131368 168.20754621666856 458.23644673253875 554.03755243727937 545.78614203853067 317.11286922544241 1419.207404167857 178.08635643869638 296.29780183755793 637.58820202481002 2086.795264154207 357.9198850505054 48.085992506006733 305.80625915620476 410.81840197555721 25.887137112207711 37.035082872956991 804.09490825794637 1666.1844223029912 32.631765343248844 454.73350247275084 137.20417697611265 2397.1655503233196 37.031992053613067 421.89997279527597 613.14307205658406 80.098794345278293 747.48822047095746 166.82394498214126 47.501084206625819 163.96361503051594 858.91634516138583 1.9223693050444115 56.69188388180919 14.670633645728229 122.49138386920094 295.5286499671638 27.009612323716283
leaf_count=310 2885 5731 1389 4965 1377 12849 394 35152 333 5185 1172 16711 429 2695 1081 2408 188 246 2585 2874 692 2768 2854 71688 156 12210 1192 1334 972 326 1254 770 3496 11 1512 205 166 375 83
internal_value=-0.000139033 -0.0160387 -0.0240235 -0.0100091 -0.027822 -0.00247459 0.0252688 -0.0426588 0.00217377 -0.0526606 0.0317248 -0.00390619 0.0383768 0.015613 0.0290479 0.00772812 0.0182888 0.00486564 0.00737647 0.0340053 -0.000599444 0.0145063 -0.00898858 -0.0580753 0.0326421 -0.0443092 0.0295275 -0.0166104 0.052779 0.0470354 -0.0404314 -0.00833747 0.00731492 -0.0621741 -0.036457 -0.0171409 0.0629704 0.0612519 0.0533873
internal_weight=19541.4 12020.1 10917.5 7331.26 2977.27 1099.82 7521.34 1877.44 4353.99 3586.25 5497.01 3562.77 3889.5 1607.51 2362.54 2024.34 1559.42 1906.06 1806.85 2024.1 338.438 1258.83 548.023 3117.29 674.62 718.198 791.229 468.962 1526.95 914.312 99.2068 332.171 884.803 2399.09 136.791 51.7057 1102.59 612.642 118.279
internal_count=203023 175460 172409 78310 54343 14226 27563 40117 23967 94099 14850 22442 7143 7707 5076 12713 5012 12320 10615 3303 1773 5353 5262 89094 1328 17395 1525 5005 2067 1298 1705 2159 3684 71699 2846 451 3051 769 393
is_linear=0
shrinkage=0.05


Tree=12
num_leaves=48
num_cat=0
split_feature=19 18 18 12 20 19 22 21 21 24 18 10 5 20 12 5 21 14 9 19 24 10 10 18 10 11 21 21 9 18 21 2 10 4 19 4 19 21 10 19 21 18 10 18 21 21 21
split_gain=2802.95 2672.08 708.464 881.741 621.175 376.149 364.591 313.382 294.282 217.378 210.904 198.675 194.928 234.949 190.652 173.32 165.667 130.815 128.309 95.5676 93.661 90.1248 88.7676 84.0803 71.1885 72.8657 67.7161 61.9859 61.3416 60.6524 51.9276 43.2584 27.2825 43.7795 22.9267 21.8242 12.1804 10.9575 6.26148 5.2542 4.15184 1.39809 1.14095 0.698449 0.53365 1.17066 0.34048
threshold=5.6666667461395273 3.5000000000000004 1.0000000180025095e-35 1.0000000180025095e-35 7.5000000000000009 15.000000000000002 1.7460317611694338 1.0000000180025095e-35 113.50000000000001 -2.9999999999999996 7.5000000000000009 10.500000000000002 28.000000000000004 4.7500000000000009 1.0000000180025095e-35 20.000000000000004 53.500000000000007 0.53125000000000011 3.5000000000000004 8.5000000000000018 -4.9999999999999991 5.5000000000000009 8.5000000000000018 16.500000000000004 25.500000000000004 3.5000000000000004 49.000000000000007 69.500000000000014 3.5000000000000004 1.0000000180025095e-35 23.500000000000004 3.0000000000000004 7.5000000000000009 17.000000000000004 13.000000000000002 13.000000000000002 8.5000000000000018 32.500000000000007 29.500000000000004 6.8333332538604745 98.500000000000014 22.500000000000004 6.5000000000000009 6.5000000000000009 135.50000000000003 128.50000000000003 147.00000000000003
decision_type=2 2 2 2 2 2 2 2 2 2 2 2 2 2 2 2 2 2 2 2 2 2 2 2 2 2 2 2 2 2 2 2 2 2 2 2 2 2 2 2 2 2 2 2 2 2 2
left_child=7 2 3 40 10 6 15 20 19 11 12 32 13 -3 -8 -4 34 21 30 22 41 27 -6 -20 25 29 -14 -11 -27 -22 -13 39 42 -34 -5 38 -33 -23 -26 -12 -2 -1 -9 -21 45 -10 -46
right_child=1 4 5 16 8 -7 14 9 44 17 31 18 26 -15 -16 -17 -18 -19 23 43 24 37 -24 -25 35 28 -28 -29 -30 -31 -32 36 33 -35 -36 -37 -38 -39 -40 -41 -42 -43 -44 -45 46 -47 -48
leaf_value=0.055201489297700891 0.063053545457830124 -0.0017911991285607346 -0.0079727911773726824 0.014333853438059905 -0.028290746349971738 -0.065284224595551152 0.014090601515510932 0.063270785306139915 0.037155165156331889 0.034924544851425876 -0.045838247537726702 0.029461988742945023 0.02105082327606483 -0.043377960520592528 -0.032101236349860555 -0.047840012985156763 -0.072457016279876968 -0.068186384534429489 0.016157711827022581 -0.06555183876723053 0.07664230897168206 0.0024681511181644479 -0.059663683243251976 -0.054430550345908796 -0.0029844807348407606 0.0217224775573059 -0.033144373175494929 -0.031125279155826909 -0.0013794762868807847 -0.011847680880696147 0.049213313878216494 -0.015980376684375592 0.051049753380048038 0.021858804874976396 -0.052764377324817535 -0.06312632889476523 -0.047930371744123484 0.014032548618331066 -0.042107934680512667 -0.059075387690478903 0.051135695374648564 0.037034457748846845 0.056305982673419901 -0.061899153786934946 0.050867293539470407 0.012685911163365671 0.035398696395020537
leaf_weight=86.134007729589939 908.34115279233083 674.34832410770468 813.3654757559998 102.56444444693625 465.54025430325419 217.57872662576847 3005.1700883307494 299.99847011081874 12.906900693662466 628.16397678013891 137.60636084806174 888.92306631617248 430.82471520639956 683.95264039019821 240.3191333420109 409.7598780868575 157.30084870476276 45.044286115095019 819.3584935455583 706.5485281557776 19.107013450935483 549.6052444120869 444.33571591367945 43.480174667667598 35.899812675081193 794.60789550142363 65.540510172024369 36.817142234183848 448.99258715379983 522.03457769355737 541.96971216611564 118.46935453067999 709.65624717250466 160.25074476655573 13.50835734978318 43.947410309221596 40.217980416724458 327.35115351667628 13.584034109488128 304.81302813498769 116.7399871237576 25.134311906993389 279.85830845683813 1459.7132572233677 14.73909050459042 11.159999989904462 45.875393104739487
leaf_count=310 2885 3741 5642 480 6256 6702 14315 394 117 1172 4047 1218 1177 15768 4678 9791 3827 2695 2498 22134 85 2737 14294 665 246 2585 438 156 2768 5177 695 1155 972 326 361 1254 1064 947 205 10379 166 83 375 45764 78 51 150
internal_value=-0.000142413 -0.0154286 0.00781715 0.0404838 -0.0401956 -0.0012398 0.00189134 0.0240826 -0.0548517 0.0304024 -0.0213149 0.0369773 -0.0129558 -0.0227518 0.0106599 -0.021361 -0.039184 0.0148762 0.0277938 -0.0573852 0.00714029 0.0173486 -0.0436658 0.0125359 0.0044831 0.00672052 0.0138325 0.0312189 0.0133833 -0.00857838 0.0369757 -0.0470336 0.0514743 0.0457093 0.00609837 -0.0378222 -0.0243586 0.00680168 -0.0144448 -0.0550822 0.0617523 0.0515087 0.0600207 -0.0631225 0.0367163 0.0269668 0.0400057
internal_weight=18921.2 11601.2 5984.65 1298.45 5616.59 4686.19 4468.61 7319.92 3160.82 5330.48 2455.77 3743.5 1854.67 1358.3 3245.49 1223.13 273.374 1586.98 2293.73 3076.14 1989.44 1541.94 909.876 862.839 1878.17 1784.74 496.365 664.981 1243.6 541.142 1430.89 601.107 1449.76 869.907 116.073 93.4313 158.687 876.956 49.4838 442.419 1025.08 111.268 579.857 2166.26 84.6814 24.0669 60.6145
internal_count=203023 175460 48847 7719 126613 41128 34426 27563 88844 14850 37769 7143 21124 19509 18993 15433 4668 7707 5076 88448 12713 5012 20550 3163 12320 10615 1615 1328 5353 5262 1913 16645 2067 1298 841 1705 2219 3684 451 14426 3051 393 769 67898 396 168 228
is_linear=0
shrinkage=0.05


Tree=13
num_leaves=42
num_cat=0
split_feature=19 17 10 19 21 1 20 21 1 22 17 14 14 17 19 19 17 11 19 10 11 9 17 19 10 10 10 19 10 21 6 28 9 14 17 25 6 21 21 10 17
split_gain=2503.94 2381.3 1350.79 559.367 415.514 961.168 275.892 275.555 266.397 240.055 193.21 172.522 97.9159 95.6601 156.777 144.88 86.1393 82.92 68.2472 60.9778 59.9991 63.6882 61.203 59.0773 54.4952 52.2683 37.0777 36.2919 34.0902 20.454 20.3871 11.2912 11.2244 7.5646 13.858 7.11109 6.02566 5.67203 4.46547 3.65717 1.36101
threshold=5.6666667461395273 1.0000000180025095e-35 7.5000000000000009 8.5000000000000018 87.500000000000014 1.0000000180025095e-35 9.5000000000000018 1.0000000180025095e-35 1.5000000000000002 2.2539683580398564 1.5000000000000002 0.21875000000000003 0.53125000000000011 9.5000000000000018 4.8333332538604745 3.4166666269302373 3.5000000000000004 5.5000000000000009 2.8333333730697636 25.500000000000004 3.5000000000000004 2.5000000000000004 5.5000000000000009 7.5000000000000009 19.500000000000004 8.5000000000000018 9.5000000000000018 7.5000000000000009 5.5000000000000009 37.500000000000007 13.000000000000002 0.087121214717626586 2.5000000000000004 0.21875000000000003 6.5000000000000009 0.29166667163372045 11.000000000000002 77.500000000000014 98.500000000000014 12.500000000000002 22.500000000000004
decision_type=2 2 2 2 2 2 2 2 2 2 2 2 2 2 2 2 2 2 2 2 2 2 2 2 2 2 2 2 2 2 2 2 2 2 2 2 2 2 2 2 2
left_child=7 38 3 9 6 -6 -5 17 23 10 -3 13 31 14 25 18 -16 19 -15 20 22 -22 -1 26 -17 -9 -4 29 -11 -10 36 39 -33 40 -35 -29 -21 -25 -2 -13 -19
right_child=1 2 8 4 5 -7 -8 11 27 28 -12 12 -14 15 16 24 -18 33 -20 30 21 -23 -24 37 -26 -27 -28 35 -30 -31 -32 32 -34 34 -36 -37 -38 -39 -40 -41 -42
leaf_value=0.001797452584422681 0.062043214083843716 0.022573531059068674 -0.028255405169700529 -0.021424332470043078 0.048898178461478974 -0.051374647784606708 -0.059229037282736666 0.055367333481095085 -0.014345468014618321 0.037104948383399131 -0.0091838301696208595 -0.00074812945206777714 -0.066928781106412108 0.054280633015582849 0.032560061955221216 0.0057393897132261562 0.0010547777437004485 0.053682955406690019 0.024948600163591982 0.0077658350450794909 0.032937677893684715 0.0058730906939552865 -0.037589866153854956 -0.059823337615328799 -0.046661458978454716 0.038956453848037254 -0.052511663493467031 -0.035396978777658204 0.015879081112712239 0.019114922198782622 -0.061617465537984223 0.03043292895751747 0.0093665179141120512 0.043823394714055441 -0.013819967269641801 -0.018312273330328716 -0.027601048952071008 -0.027130103518674609 0.049495041967302325 -0.046254402781467946 0.035726482423289428
leaf_weight=409.14624787122011 842.93674694839865 572.50128827709705 283.01293617114425 974.50760166253895 490.13486457895488 464.49615023401566 959.64994960371405 814.89547956548631 83.803911399329081 398.44683688879013 2902.8194528815802 7.8400097088888314 42.367736840504222 274.58057587593794 570.93757796986029 424.62200034037232 350.20806962694041 81.387484971433878 727.69022069685161 19.365637952461839 286.30816534208134 898.39242596970871 128.83386797411367 2005.2826440326171 55.161486097611487 1254.6252416539937 372.14607766503468 106.21669870940968 366.39423263212666 97.882485510781407 40.936423682142049 70.970631844364107 561.54680835455656 29.201963797211647 15.15937613788992 157.52013224759139 28.682588188908994 16.290563738439232 109.98723938316107 9.9396880753338319 24.947366554290056
leaf_count=2408 2885 2057 5185 17408 690 12189 28423 1189 630 650 20297 38 2695 356 959 1598 2049 310 1030 111 841 4355 2854 67589 848 2150 12210 1554 875 383 1254 212 1645 82 75 1699 340 570 166 81 83
internal_value=-0.000170571 -0.0149094 -0.0219393 -0.00992419 -0.0268885 0.000100352 -0.040205 0.0229954 -0.0493605 0.0016359 -0.00394591 0.0290544 0.00581579 0.03265 0.0378038 0.0222283 0.0206017 0.00703751 0.0330354 0.00405873 0.00615384 0.0124403 -0.00767787 -0.0553177 -0.000359343 0.0454444 -0.0421002 -0.0135061 0.0269773 0.00365971 -0.0360632 0.0106584 0.0117824 0.0425524 0.0241446 -0.0253195 -0.0133769 -0.0595759 0.0606535 -0.0275629 0.0498888
internal_weight=18331.8 11204 10251.1 7128.95 2888.79 954.631 1934.16 7127.75 3122.16 4240.16 3475.32 5165.39 692.665 4472.72 2990.67 1482.05 921.146 1962.36 1002.27 1811.67 1722.68 1184.7 537.98 2676.73 479.783 2069.52 655.159 445.423 764.841 181.686 88.9846 650.297 632.517 150.696 44.3613 263.737 48.0482 2021.57 952.924 17.7797 106.335
internal_count=203023 175460 172409 82589 58710 12879 45831 27563 89820 23879 22354 14850 4671 10179 6347 3832 3008 12713 1386 12163 10458 5196 5262 85554 2446 3339 17395 4266 1525 1013 1705 1976 1857 550 157 3253 451 68159 3051 119 393
is_linear=0
shrinkage=0.05


Tree=14
num_leaves=43
num_cat=0
split_feature=30 18 17 30 22 20 24 17 12 20 1 10 13 18 17 20 17 0 20 0 21 21 21 18 17 22 0 18 20 1 10 4 30 10 25 21 0 17 17 21 4 17
split_gain=2215.99 2179.25 1325.41 400.684 371.816 365.8 259.609 280.571 250.606 232.688 211.299 127.598 118.349 117.858 103.947 122.953 92.7707 85.2959 123.567 84.1138 77.6129 74.8334 61.2674 57.3528 38.3808 57.8457 37.9096 36.6731 36.2226 35.1098 33.4 32.6968 16.8885 24.9971 14.2341 10.6602 5.83926 15.5016 5.81373 4.78321 2.87197 2.13566
threshold=0.17708333581686023 4.5000000000000009 1.0000000180025095e-35 0.066964287310838713 1.8888888955116274 7.5000000000000009 -2.9999999999999996 5.5000000000000009 1.0000000180025095e-35 3.7500000000000004 1.5000000000000002 14.500000000000002 0.46875000000000006 7.5000000000000009 13.500000000000002 2.7500000000000004 2.5000000000000004 5.5000000000000009 5.5000000000000009 4.5000000000000009 136.50000000000003 63.500000000000007 35.500000000000007 1.0000000180025095e-35 3.5000000000000004 0.94444444775581371 4.5000000000000009 5.5000000000000009 1.8750000000000002 1.5000000000000002 17.500000000000004 17.000000000000004 0.11805555596947671 9.5000000000000018 0.29166667163372045 13.500000000000002 3.5000000000000004 1.5000000000000002 9.5000000000000018 98.500000000000014 15.000000000000002 2.5000000000000004
decision_type=2 2 2 2 2 2 2 2 2 2 2 2 2 2 2 2 2 2 2 2 2 2 2 2 2 2 2 2 2 2 2 2 2 2 2 2 2 2 2 2 2 2
left_child=1 2 39 -4 10 13 7 24 -6 14 -5 31 -8 17 26 -16 21 18 -3 28 32 23 -19 -14 36 34 -9 -21 -18 38 -13 -11 -7 -34 -26 -31 37 -2 -15 -1 -27 -38
right_child=6 5 3 4 8 20 12 9 -10 11 -12 30 16 29 15 -17 19 22 -20 27 -22 -23 -24 -25 25 40 -28 -29 -30 35 -32 -33 33 -35 -36 -37 41 -39 -40 -41 -42 -43
leaf_value=0.061126221629181514 0.067182207218770371 -0.008460131271752094 -0.064332102439808164 -0.035641543322812892 0.010766377959997114 -0.060718980869100561 -0.067918983668437002 -0.0087908494803765457 -0.031797713752422622 0.015953615439403841 -0.003412228340239467 -0.022156955248934802 0.072315416874530483 -0.04400234593519934 0.042441454739468684 0.0045489369972379224 -0.0038018397377413862 0.017597318242258332 -0.048878358200685999 0.012487988718184947 0.035747718457352827 -0.071821049902364584 -0.03872817036286922 0.02414305769369297 0.031309364048021308 0.055135900129888851 0.037426576208142846 -0.0038864814868893628 -0.060128599551882204 -0.038587888432672406 -0.065718148666288917 -0.0097291768159556494 -0.03746442750331367 -0.05905392173442775 0.0055475190985943288 -0.011834139205899012 0.062465290147639164 0.00079904514996078388 -0.057956277094747072 0.047948159482709904 0.045732729863740808 0.054429171885494371
leaf_weight=780.44143592007458 17.358240075409412 459.56709037395194 278.43431705911644 1060.1714593834477 3342.7940135882236 1671.0222871799488 49.697575935861096 45.127987209707499 384.68934144987725 451.33442122954875 977.71361271990463 133.60313456039876 71.586939319036901 144.30931808403693 303.09442246705294 725.43663481343538 48.717688590753824 238.72242879401892 321.37561650323914 950.8633866137825 21.571480277227238 17.370558429509401 59.442849020473659 440.32336985878646 106.45489166025072 197.81203881837428 1567.7656582240015 532.44435049127787 69.10653573833406 70.274228792404756 66.398592728190124 169.66165796481073 235.8219562608283 344.97431106888689 109.18179353466257 82.234053899417631 298.07801998965442 17.224238775670528 247.73578576743603 104.23326621763408 270.8806822989136 280.35626938007772
leaf_count=2885 50 3746 9812 22676 16600 60064 3041 245 7709 1215 5666 1027 227 5086 782 2900 426 680 9784 2609 101 83 536 1347 254 330 2958 4203 1361 1007 1770 973 5642 12748 324 1212 480 56 9340 166 445 457
internal_value=-0.000175154 -0.014314 0.00251113 -0.00585817 -0.00302268 -0.0442211 0.0218781 0.0284225 0.00636492 0.0209787 -0.0201906 -0.00226367 0.00758125 -0.0260646 0.0282028 0.0157506 0.00937588 -0.0164623 -0.0251408 0.0033669 -0.0571692 0.0275036 0.00625952 0.0310172 0.0482537 0.0399605 0.0361257 0.00660822 -0.0371088 -0.0450186 -0.0368987 0.00892445 -0.058077 -0.0503759 0.0183744 -0.0243656 0.0574233 0.0352114 -0.0529577 0.0596351 0.0498209 0.0586796
internal_weight=17765.4 10825.5 6928.48 6043.8 5765.37 3897.05 6939.88 4759.77 3727.48 3462.42 2037.89 820.998 2180.11 1623.66 2641.42 1028.53 2130.41 1079.11 780.943 1601.13 2273.39 529.281 298.165 511.91 1297.35 684.329 1612.89 1483.31 117.824 544.553 200.002 620.996 2251.82 580.796 215.637 152.508 613.017 34.5825 392.045 884.675 468.693 578.434
internal_count=203023 175460 65514 62463 52651 109946 27563 14266 24309 11870 28342 4985 13297 31391 6885 3682 10256 14746 13530 8599 78555 1657 1216 1574 2396 1353 3203 6812 1787 16645 2797 2188 78454 18390 578 2219 1043 106 14426 3051 775 937
is_linear=0
shrinkage=0.05


Tree=15
num_leaves=48
num_cat=0
split_feature=19 18 17 20 19 22 12 24 17 19 19 18 0 1 10 17 19 13 17 17 22 0 0 20 10 18 17 22 18 0 5 19 19 19 19 25 19 17 22 17 0 19 19 18 19 22 5
split_gain=1921.8 2088.89 1012.37 486.559 308.97 264.523 248.213 241.97 292.819 204.959 137.562 127.501 162.436 195.383 119.945 111.127 140.863 105.471 95.2654 84.0619 65.1655 62.984 54.1037 52.7757 42.6001 41.4107 40.7918 54.9171 37.6832 55.8253 37.1549 34.2248 15.0912 10.2348 9.41756 9.3226 9.3027 9.11271 12.51 6.23077 4.29026 3.8783 3.44888 13.6714 1.48599 0.734706 0.756074
threshold=5.6666667461395273 3.5000000000000004 1.0000000180025095e-35 7.5000000000000009 15.000000000000002 1.8888888955116274 1.0000000180025095e-35 -2.9999999999999996 5.5000000000000009 3.7500000000000004 10.500000000000002 7.5000000000000009 5.5000000000000009 1.5000000000000002 12.500000000000002 10.500000000000002 3.4166666269302373 0.46875000000000006 4.5000000000000009 2.5000000000000004 1.8888888955116274 4.5000000000000009 4.5000000000000009 4.7500000000000009 17.500000000000004 6.5000000000000009 3.5000000000000004 0.84444445371627819 1.0000000180025095e-35 3.5000000000000004 36.000000000000007 2.5833333730697636 7.5000000000000009 4.2500000000000009 1.0714285969734194 0.91666665673255932 4.2500000000000009 5.5000000000000009 1.8888888955116274 10.500000000000002 4.5000000000000009 6.8333332538604745 2.3750000000000004 1.5000000000000002 8.5000000000000018 1.7460317611694338 20.000000000000004
decision_type=2 2 2 2 2 2 2 2 2 2 2 2 2 2 2 2 2 2 2 2 2 2 2 2 2 2 2 2 2 2 2 2 2 2 2 2 2 2 2 2 2 2 2 2 2 2 2
left_child=7 2 41 11 5 10 -7 8 26 15 -4 12 13 -3 36 22 -17 -9 20 28 -5 31 -10 32 -16 -23 42 34 40 -30 -22 -21 -13 -29 -28 -14 -11 38 -20 -25 -19 -2 43 -1 -39 46 -43
right_child=1 3 4 18 -6 6 -8 17 9 14 -12 23 35 -15 24 16 -18 19 37 21 30 25 -24 39 -26 -27 27 33 29 -31 -32 -33 -34 -35 -36 -37 -38 44 -40 -41 -42 45 -44 -45 -46 -47 -48
leaf_value=0.065341050189009098 0.045976352305322502 -0.045595769841200146 -0.010881823054959916 -0.062195223859898008 -0.062814231781628496 0.014509417336688611 -0.03088155486341955 -0.067055999087766729 -0.012795733067529276 0.016884325456430361 -0.059196508072019496 0.0067140424513054513 0.012908799578486251 -0.0059301641798650958 -0.017384290621184604 0.026736667537120784 -0.0070842491972577006 0.07055994110962481 -0.060340330418587884 -0.001484775263793411 -0.015904178822811428 0.009731313639323497 0.041770545266473023 -0.044778116854366723 -0.062977398789656122 -0.01024917752998074 0.035336321241318802 0.049534393852924886 -0.011795648642137916 0.029736948024268562 -0.0625764611623289 -0.056832524914625343 -0.027772434417475424 0.032420360743589074 0.00045830931117391721 -0.013827058834891912 0.0017528788644729906 -0.054586983043594384 -0.039705215289364014 -0.058635383765637199 0.042653553802030793 0.061728549354883699 0.05951648332886264 0.028083847822879083 -0.059454804231307182 0.060935520580951558 0.050254229930545957
leaf_weight=52.913256302475929 83.208864521235228 553.99406811897643 1353.2055101147853 137.80532130924985 197.82393883145414 2683.6503559800331 338.23425185855012 46.704402390285395 47.136780429631472 353.61474686302245 164.5389908408979 49.982400582055561 438.84155479585752 706.15103480929974 250.3367864927277 1164.9289777986705 417.55551465367898 39.712531802244484 137.32652186066844 48.938860995229334 331.51820585178211 1134.231059493497 947.06278253719211 204.87854520173278 64.101703869178891 334.99244916182943 23.527403575368226 416.10282553173602 105.08308830112219 341.98638104554266 48.33968078577891 64.830280292313546 83.39355363312643 123.75307068042457 93.341065041255206 34.232525746338069 143.7786631193012 423.96628850128036 189.31641188077629 184.44828659819905 34.090691732242703 59.962151663377881 471.39150366000831 51.386379766277969 1379.9732214038959 561.40573584125377 122.3201643624343
leaf_count=116 327 14980 13986 4781 7447 11554 6614 3001 252 822 6150 394 1489 4459 1765 2599 2203 150 4883 417 3184 3621 1749 7552 1787 3225 68 720 669 715 1882 1375 1380 255 318 139 643 16276 5120 7318 104 230 791 129 52777 2070 446
internal_value=-0.000433953 -0.0138601 0.00710731 -0.0376476 -0.00180605 0.000864655 0.0094187 0.0203206 0.0267679 0.019165 -0.0161584 -0.0205667 -0.0140197 -0.0233945 -0.00273493 0.0260653 0.0178107 0.00645891 -0.0521829 0.00812435 -0.0328131 0.00238208 0.0391682 -0.042198 -0.026865 0.00516836 0.0476356 0.0389683 0.0255282 0.0199591 -0.0220054 -0.0332881 -0.0148577 0.0456877 0.00776243 0.0109385 0.0125327 -0.0568692 -0.0485535 -0.0514894 0.058479 0.0581202 0.0574294 0.0474737 -0.0583444 0.0594087 0.0543722
internal_weight=17240 10468.5 5564.35 4904.17 4737.45 4539.63 3021.88 6771.5 4620.93 3388.52 1517.74 2255.92 1733.22 1260.15 811.832 2576.68 1582.48 2150.57 2648.25 2103.87 517.663 1582.99 994.2 522.703 314.438 1469.22 1232.42 656.724 520.873 447.069 379.858 113.769 133.376 539.856 116.868 473.074 497.393 2130.58 326.643 389.327 73.8032 826.897 575.691 104.3 1803.94 743.688 182.282
internal_count=202932 175438 48824 126614 45751 38304 18168 27494 14217 11820 20136 37711 21067 19439 5017 6803 4802 13277 88903 10276 9847 8638 2001 16644 3552 6846 2397 1361 1638 1384 5066 1792 1774 975 386 1628 1465 79056 10003 14870 254 3073 1036 245 69053 2746 676
is_linear=0
shrinkage=0.05


Tree=16
num_leaves=49
num_cat=0
split_feature=30 18 17 20 30 22 12 24 17 20 30 18 0 2 10 17 20 17 17 14 6 20 0 18 0 6 17 22 10 7 20 18 30 9 22 6 17 6 26 10 17 6 18 0 28 7 7 9
split_gain=1706.18 1877.76 933.085 454.899 278.056 247.47 230.163 219.139 269.244 174.175 122.428 115.896 143.684 175.696 108.609 101.951 117.665 100.079 93.8272 76.8363 70.193 48.9218 47.9161 41.4072 75.9183 45.3803 39.4711 46.7848 38.4909 33.5256 33.4098 36.7502 15.5466 15.3604 12.9088 12.8575 19.6875 10.8596 6.43372 6.40916 5.94568 4.0669 13.2724 3.51471 3.26833 2.93754 1.1913 1.3579
threshold=0.17708333581686023 3.5000000000000004 1.0000000180025095e-35 7.5000000000000009 0.066964287310838713 1.8888888955116274 1.0000000180025095e-35 -2.9999999999999996 5.5000000000000009 3.7500000000000004 0.095454547554254546 7.5000000000000009 5.5000000000000009 3.0000000000000004 12.500000000000002 10.500000000000002 3.2500000000000004 3.5000000000000004 4.5000000000000009 0.53125000000000011 17.000000000000004 5.5000000000000009 4.5000000000000009 1.0000000180025095e-35 3.5000000000000004 2.0000000000000004 3.5000000000000004 0.84444445371627819 17.500000000000004 4.5000000000000009 1.1250000000000002 8.5000000000000018 0.15833333879709247 3.5000000000000004 0.58333334326744091 17.000000000000004 6.5000000000000009 17.000000000000004 0.31666667759418493 6.5000000000000009 9.5000000000000018 9.0000000000000018 1.5000000000000002 4.5000000000000009 0.39230769872665411 4.5000000000000009 3.5000000000000004 3.5000000000000004
decision_type=2 2 2 2 2 2 2 2 2 2 2 2 2 2 2 2 2 2 2 2 2 2 2 2 2 2 2 2 2 2 2 2 2 2 2 2 2 2 2 2 2 2 2 2 2 2 2 2
left_child=1 2 45 11 -4 10 -7 8 26 15 -6 12 13 -3 33 22 -17 23 20 30 29 32 -10 43 25 -25 41 38 -16 -5 44 -32 -13 -11 -26 36 -20 -29 -28 -14 -23 42 -2 -9 -19 46 -1 -48
right_child=7 3 4 18 5 6 -8 17 9 14 -12 21 39 -15 28 16 -18 19 35 -21 -22 40 -24 24 34 -27 27 37 -30 -31 31 -33 -34 -35 -36 -37 -38 -39 -40 -41 -42 -43 -44 -45 -46 -47 47 -49
leaf_value=0.060783918121075566 0.063842253739108429 -0.044352635134753737 -0.061976556378302551 -0.058403981290180484 -0.057914570364478585 0.013883298715151711 -0.030262690862758512 0.067817384116342472 -0.011467445053435837 0.021660568532764535 -0.011021016915810831 -0.02565107120115603 0.017528105503583021 -0.0061385600759574742 -0.016649675683464527 0.02504991057376902 -0.006259713381818144 0.0068155080682207247 -0.039283881528233498 -0.066499293402778534 -0.062285687483687714 -0.042403933032562083 0.040107525628495393 0.037734806946493699 -0.0043699522632488844 -0.032210706250270942 -0.00089586873765705975 0.048082456325508449 -0.061450777517465895 -0.013963477703840696 -0.0019706460700526741 -0.033907429557576606 0.013949857606696162 0.0038921087791273915 0.024858760782934516 -0.059105150528440724 -0.056839868231684458 0.030232955445935294 0.023261673571113847 0.0054050223555917685 -0.057512250580295479 0.058515092886179211 0.0263899488978733 0.041514252739735968 0.016657562648891264 0.060085891297565343 0.05081391235886721 0.033479187723498949
leaf_weight=56.291634645313025 49.599754646420479 525.30592286691535 183.21133217541501 48.418612848967314 154.53202224080451 2663.9168235817924 331.03331313410308 36.108937330543995 46.799224537797272 233.94686780124903 1340.5122015642701 135.8561844767537 182.13297513034195 703.68325802322943 242.9939992101863 1137.2311594653875 406.72229996835813 152.3055292069912 271.32087118341587 44.694268519291654 134.95156360743567 126.25556043628603 912.92797929793596 28.380309071391821 39.652945481240749 109.66465433873236 70.245254230685532 394.29281713906676 59.37058117822744 315.37459797598422 761.27082106517628 101.26302486239001 29.413760009221733 255.00454640574753 612.76155761349946 1279.5007171165198 448.02124958380591 120.01925597060472 43.890496402047575 277.17259228834882 208.64847504824866 441.80012394301593 50.157684803940356 33.792649710550904 201.40793298184872 525.63968372624367 166.46133213257417 22.808967654593289
leaf_count=230 116 14980 7447 1426 6150 11554 6614 150 252 518 13986 2450 414 4459 1765 2599 2203 388 8124 3001 5577 4958 1749 98 192 1102 250 720 1787 2844 4654 1898 215 947 1205 51551 19381 255 136 1214 9021 791 129 108 481 2103 658 82
internal_value=-0.000447881 -0.0133276 0.00664283 -0.0365274 -0.00176919 0.00069967 0.00899368 0.0193608 0.0256466 0.0183179 -0.0159069 -0.0198678 -0.0135857 -0.0224992 -0.00212259 0.0247787 0.0168001 0.00612212 -0.0511093 -0.00284625 -0.0315797 -0.0409932 0.037578 0.01926 0.0159437 -0.0176269 0.0462481 0.0375739 -0.0256366 -0.0200358 -0.000450331 -0.0057608 -0.0185316 0.0124308 0.0230707 -0.0559616 -0.0502888 0.0439936 0.00847175 0.0102508 -0.0519746 0.056217 0.0455098 0.055937 0.0124649 0.0575594 0.0519094 0.0489381
internal_weight=16716.8 10130.5 5444.41 4686.06 4673.21 4489.99 2994.95 6586.3 4465 3295 1495.04 2188.47 1688.29 1228.99 791.316 2503.68 1543.95 2121.3 2497.59 1260.94 498.745 500.174 959.727 860.361 790.459 138.045 1170.01 628.448 302.365 363.793 1216.25 862.534 165.27 488.951 652.415 1998.84 719.342 514.312 114.136 459.306 334.904 541.558 99.7574 69.9016 353.713 771.202 245.562 189.27
internal_count=202932 175438 48824 126614 45751 38304 18168 27494 14217 11820 20136 37711 21067 19439 5017 6803 4802 13277 88903 10422 9847 16644 2001 2855 2597 1200 2397 1361 3552 4270 7421 6552 2665 1465 1397 79056 27505 975 386 1628 13979 1036 245 258 869 3073 970 740
is_linear=0
shrinkage=0.05


Tree=17
num_leaves=53
num_cat=0
split_feature=19 18 17 26 19 22 21 21 21 24 18 19 22 18 7 1 17 21 19 19 17 22 17 13 24 17 26 26 11 17 17 7 21 17 18 18 17 26 19 17 4 21 17 21 22 17 21 4 21 17 17 21
split_gain=1561.66 1665.38 868.852 425.675 249.774 224.196 470.467 215.825 197.811 152.741 160.002 148.922 126.549 107.126 130.993 154.114 90.2517 84.1585 81.9298 71.8782 97.4069 67.8004 64.7551 59.3234 54.1541 53.0596 63.0837 45.3037 45.076 53.9826 38.5278 37.1414 35.978 32.6315 30.282 21.2211 20.3843 16.066 14.8663 11.3992 20.1416 9.01386 5.72431 4.45584 39.3655 2.80016 2.51841 1.50824 0.918104 0.12298 0.179542 0.0284028
threshold=5.6666667461395273 3.5000000000000004 1.0000000180025095e-35 0.066964287310838713 8.5000000000000018 2.2539683580398564 53.500000000000007 1.0000000180025095e-35 119.50000000000001 -2.9999999999999996 5.5000000000000009 10.500000000000002 1.8888888955116274 7.5000000000000009 4.5000000000000009 1.5000000000000002 3.5000000000000004 61.500000000000007 8.5000000000000018 3.4166666269302373 10.500000000000002 2.2539683580398564 7.5000000000000009 0.46875000000000006 -4.9999999999999991 10.500000000000002 0.11805555596947671 0.091666668653488173 3.5000000000000004 3.5000000000000004 16.500000000000004 3.5000000000000004 55.500000000000007 22.500000000000004 6.5000000000000009 1.0000000180025095e-35 2.5000000000000004 0.35416667163372045 7.5000000000000009 3.5000000000000004 17.000000000000004 141.50000000000003 9.5000000000000018 95.500000000000014 2.2539683580398564 17.500000000000004 113.50000000000001 11.000000000000002 157.50000000000003 22.500000000000004 19.500000000000004 129.50000000000003
decision_type=2 2 2 2 2 2 2 2 2 2 2 2 2 2 2 2 2 2 2 2 2 2 2 2 2 2 2 2 2 2 2 2 2 2 2 2 2 2 2 2 2 2 2 2 2 2 2 2 2 2 2 2
left_child=7 2 43 8 12 11 -7 24 18 10 39 -6 31 14 15 -5 17 35 22 30 -21 -14 -3 -18 45 28 -27 42 34 -30 -12 -4 -16 -28 -26 -11 -19 -25 -29 47 -41 51 -15 -2 -45 -1 -20 -9 -43 50 -47 -10
right_child=1 3 4 13 5 6 -8 9 41 16 19 -13 21 27 32 -17 23 36 46 20 -22 -23 -24 37 25 26 33 38 29 -31 -32 -33 -34 -35 -36 -37 -38 -39 -40 40 -42 48 -44 44 -46 49 -48 -49 -50 -51 -52 -53
leaf_value=0.054448754267763702 0.058660853912532 -0.026411018890531542 -0.0030966534298036172 -0.042964812034112732 -0.013931991899955169 -0.047630732503654287 0.031685382998582166 0.04530707441033964 0.00099877956343114114 0.063340102349599831 0.037615931971615661 -0.052596624100310831 0.0096722778219161948 -0.041445336962356333 0.013721827325655423 -0.0066404630236028038 -0.062704638878204808 -0.081236308847454475 -0.059140404561880335 0.024578475360303248 -0.0076377058694425716 0.033447280309881179 -0.057221607364174198 -0.00087506865269924112 0.00042835642923921466 -0.063399811546459947 -0.0003060431287844733 0.0012894615925283742 0.055077029322233809 0.011480440387229302 0.014884927678875538 -0.02772816884628055 -0.040302673460808382 -0.038641532958705906 -0.044906012877505536 0.028021051808666715 0 0.013667070630807535 -0.029789603468039667 0.04955041390488555 0.024554637044125263 0.029914047442646322 -0.056687493748449551 -0.011735997913852006 0.063114696140779344 0.0267189836730263 -0.012319875615618904 0.056917983051559019 0.050365851900223017 0.02561745736734369 0.042163735706991799 0.0059532310885494696
leaf_weight=33.593074131757021 625.49108190112747 439.85733166639693 600.80673911608756 500.10358903638553 525.03830172365997 291.58319267490879 516.85894328239374 63.473397329449654 7.8354881873820004 46.595955215394497 876.9547774810344 475.25688175414689 1620.193942880258 120.08944267360494 419.4743196615018 701.78876453277189 33.76546481018886 19.764769507572055 1559.8640177539783 765.81680061202496 337.21017107740045 367.82594067975879 282.38807272585109 574.83471849630587 442.84032325563021 49.712441750336438 459.31630328530446 59.910634272033349 79.545319536700845 615.32587610348128 240.0446639098227 204.77672718232498 32.253722673282027 62.187645198777318 39.156637110281736 511.52185650169849 12.478868378791956 282.15409282594919 104.67707651271485 327.08596983132884 112.39575575198978 15.71897359844297 195.87486268999055 22.619464982300997 72.028540641069412 13.921010695397852 3.7446157471276811 359.39243099559098 32.825637090951204 19.362617921084166 21.955749427899718 12.32854931312613
leaf_count=147 2860 7709 2974 14980 7354 5947 2318 106 58 148 1380 17995 4867 4958 1344 4459 2656 78 68055 1769 2027 638 12751 3130 3130 1397 2510 480 243 2541 382 3658 284 1324 1105 990 50 679 2185 581 226 80 9021 81 132 64 59 654 103 74 103 88
internal_value=-0.000444522 -0.0129785 0.00593865 -0.0354067 -0.00205572 -0.0165276 0.00304853 0.0187671 -0.0500649 0.0245915 0.0309327 -0.0323414 0.00731498 -0.0192166 -0.0131584 -0.0217822 0.0113794 0.0265228 -0.0525801 0.0238097 0.014727 0.0140883 -0.0385269 0.00131879 0.00428898 0.00233896 -0.0101495 -0.0399821 0.00840819 0.0165503 0.0327532 -0.00939072 0.00977289 -0.0049522 -0.00332953 0.0310867 -0.0508838 0.00391729 -0.018507 0.0492155 0.0432394 0.0330943 -0.0510592 0.0569689 0.0452385 0.0421536 -0.0590394 0.0552979 0.0445818 0.0337524 0.0371935 0.0044024
internal_weight=16211.6 9811.21 5322.48 4488.74 4602.34 1808.74 808.442 6400.41 2354.56 4563.49 3082.37 1000.3 2793.6 2134.17 1653.62 1201.89 1481.12 590.361 2285.85 2220.03 1103.03 1988.02 722.245 890.754 1836.92 1748.08 571.216 480.552 1176.87 694.871 1117 805.583 451.728 521.504 481.997 558.118 32.2436 856.989 164.588 862.348 439.482 68.7086 315.964 720.139 94.648 88.8325 1563.61 422.866 48.5446 55.2394 35.8768 20.164
internal_count=202932 175438 48824 126614 45751 33614 8265 27494 88903 14856 7125 25349 12137 37711 21067 19439 7731 1266 88574 5558 3796 5505 20460 6465 12638 12250 5231 16644 7019 2784 1762 6632 1628 3834 4235 1138 128 3809 2665 1567 807 329 13979 3073 213 388 68114 760 183 241 167 146
is_linear=0
shrinkage=0.05


Tree=18
num_leaves=50
num_cat=0
split_feature=30 18 17 20 30 22 21 12 21 24 10 30 18 5 5 9 30 17 21 10 17 13 24 18 20 16 9 22 9 21 18 21 24 18 10 4 30 21 21 17 17 21 21 22 4 21 10 10 21
split_gain=1376.83 1527.14 787.475 402.629 232.073 214.265 203.513 201.601 174.383 130.08 154.055 102.888 99.5295 118.93 139.425 82.3015 79.8633 76.4946 95.1957 60.3156 56.5784 56.4926 48.2413 46.8555 42.1354 39.9401 52.1549 51.1161 39.795 30.7118 18.8347 14.4408 14.0918 12.775 11.3714 19.8041 10.6387 9.95261 7.55163 5.71787 2.89375 2.36708 1.59872 15.265 1.50997 0.515092 0.257148 0.186628 0.0907996
threshold=0.17708333581686023 3.5000000000000004 1.0000000180025095e-35 7.5000000000000009 0.066964287310838713 1.8888888955116274 1.0000000180025095e-35 1.0000000180025095e-35 119.50000000000001 -2.9999999999999996 9.5000000000000018 0.095454547554254546 7.5000000000000009 28.000000000000004 20.000000000000004 3.5000000000000004 0.11805555596947671 3.5000000000000004 61.500000000000007 9.5000000000000018 16.500000000000004 0.46875000000000006 -4.9999999999999991 1.5000000000000002 4.7500000000000009 3.5000000000000004 3.5000000000000004 0.58333334326744091 2.5000000000000004 55.500000000000007 1.0000000180025095e-35 34.500000000000007 -2.9999999999999996 1.0000000180025095e-35 7.5000000000000009 17.000000000000004 0.13392857462167743 125.00000000000001 141.50000000000003 10.500000000000002 17.500000000000004 113.50000000000001 93.500000000000014 2.2539683580398564 11.000000000000002 157.50000000000003 30.500000000000004 27.500000000000004 133.50000000000003
decision_type=2 2 2 2 2 2 2 2 2 2 2 2 2 2 2 2 2 2 2 2 2 2 2 2 2 2 2 2 2 2 2 2 2 2 2 2 2 2 2 2 2 2 2 2 2 2 2 2 2
left_child=1 2 42 12 -4 11 22 -7 16 10 34 -6 13 14 -3 28 41 18 30 -18 -17 -19 40 32 36 27 -27 -25 -12 -15 -11 -23 -24 -34 44 -36 -14 -20 48 -26 -2 -5 -1 -44 -8 -40 47 -42 -10
right_child=6 3 4 8 5 7 9 -9 38 17 15 -13 24 29 -16 20 19 21 37 -21 -22 31 23 25 39 26 -28 -29 -30 -31 -32 -33 33 -35 35 -37 -38 -39 45 -41 46 -43 43 -45 -46 -47 -48 -49 -50
leaf_value=0.057985810715882484 0.053157737700363222 -0.0074054940568085833 -0.060793458813897111 -0.058527814132800483 -0.056188550809218321 0.012865375325978793 0.044351574187078628 -0.029217009451186368 6.1179203580308296e-05 0.061986504005378376 0.047202433303062036 -0.010843576003604048 -0.026079247598581646 0.012911231095718376 -0.04273483001099157 0.013625588430928884 -0.026010256260826477 -0.06193126202426541 -0.026874389893089476 -0.056522319841720618 -0.048195862595596335 -0.00044116215979328043 0.064436346681367759 -0.054318014636407876 -0.041748443139889138 0.012107208965802231 -0.0098307044947656026 -0.0061150440943558331 0.025934954537961387 -0.038000244729266747 0.027579078810062909 0.013240855232789055 0.064272375342882562 0.013297722248974353 0.048614406205952476 0.02340312590912158 0.0031034997896040237 -0.082596976391122456 0.027365005466103577 -0.056147247565357154 0.025218607091718262 -0.012867189914906253 0.012534313075399579 0.06035301864551125 0.056127848652912142 0.044356201250032673 0.023132801707748802 0.040585970678457983 0.0072482717334366375
leaf_weight=573.00543583044782 31.498435478657484 722.48484126443509 158.87104359013028 1455.2020149152959 137.48342653398868 2620.228703224333 61.143140569329262 318.25213708134834 13.55791720794514 43.385949807241559 287.45078924670815 1313.3403544533066 79.451062505366281 412.21274571912363 455.21235561207868 857.07510304963216 430.41122518433258 32.317481432575732 18.884015014860779 263.29930000414606 37.680651375558227 537.52637248462997 26.463780369609594 64.272935776272789 176.23331726703327 761.7715133856982 419.02981518395245 354.06508519256022 976.6408933987841 30.906435246113688 505.54620994348079 299.13101819064468 14.224651804193853 71.067700672894716 306.21102982386947 109.61276776622981 50.266381819732487 15.760980289429424 15.680226691067217 153.89281876431778 13.396091705188153 3.7699278793297699 23.553712978959084 64.942774210125208 335.40075317863375 32.373387585161254 18.601245943456888 20.658830773085356 6.7797652105800799
leaf_count=2835 147 5007 7447 68055 6150 11554 106 6614 91 148 456 13986 1380 1344 14432 2818 7709 2656 78 12751 669 2852 86 1528 7552 2931 3974 3289 1624 284 990 957 91 351 572 226 394 50 80 7318 64 59 106 132 654 103 74 103 55
internal_value=-0.000446141 -0.0124072 0.00579768 -0.0344518 -0.0016194 0.000534625 0.017846 0.00829755 -0.049256 0.0236069 0.0296023 -0.0151798 -0.01863 -0.0127858 -0.0210902 0.0225957 -0.0517554 0.0113279 0.0253134 -0.0376631 0.0109656 0.00191157 0.0036406 0.00180831 -0.0391456 -0.000384898 0.00431616 -0.0136447 0.0308086 0.00927146 0.0304154 0.00445458 0.0329607 0.0225033 0.0481654 0.0420527 -0.0147953 -0.0539705 0.0289525 -0.048625 0.0403744 -0.0584221 0.0567271 0.047964 0.0544408 0.0395847 0.0317862 0.0355754 0.0029188
internal_weight=15730.2 9511.41 5209.68 4301.73 4548.18 4389.3 6218.82 2938.48 2221.07 4423.77 2971.22 1450.82 2080.66 1620.82 1177.7 2158.85 2152.68 1452.55 583.577 693.711 894.756 868.975 1795.05 1710.9 459.844 1599.14 1180.8 418.338 1264.09 443.119 548.932 836.657 111.756 85.2924 812.368 415.824 129.717 34.645 68.3913 330.126 84.1546 1458.97 661.502 88.4965 396.544 48.0536 52.6562 34.0549 20.3377
internal_count=202932 175438 48824 126614 45751 38304 27494 18168 88903 14856 7125 20136 37711 21067 19439 5567 88574 7731 1266 20460 3487 6465 12638 12250 16644 11722 6905 4817 2080 1628 1138 3809 528 442 1558 798 1774 128 329 14870 388 68114 3073 238 760 183 241 167 146
is_linear=0
shrinkage=0.05


Tree=19
num_leaves=46
num_cat=0
split_feature=19 17 18 24 17 17 19 5 21 20 20 19 18 10 22 17 17 19 21 21 20 0 13 11 0 21 10 19 10 5 4 17 22 20 19 10 4 4 4 18 4 21 21 25 10
split_gain=1264.71 1191.08 718.075 353.401 287.755 224.242 199.935 185.917 389.6 174.061 139.306 122.596 119.366 107.823 103.745 143.237 96.0304 89.6125 60.9247 59.6894 57.8137 200.292 63.4411 49.1017 47.4396 39.374 33.5235 30.9894 29.24 25.3108 18.6964 17.9818 28.748 11.625 7.38966 6.35548 10.8062 4.58016 3.86504 11.324 2.62057 2.6141 1.90247 0.136799 0.0783563
threshold=7.5000000000000009 1.0000000180025095e-35 4.5000000000000009 -2.9999999999999996 3.5000000000000004 4.5000000000000009 15.000000000000002 28.000000000000004 77.500000000000014 4.7500000000000009 5.5000000000000009 3.7500000000000004 9.5000000000000018 12.500000000000002 2.2539683580398564 1.5000000000000002 10.500000000000002 2.8333333730697636 69.500000000000014 136.50000000000003 5.5000000000000009 5.5000000000000009 0.46875000000000006 2.5000000000000004 4.5000000000000009 81.500000000000014 17.500000000000004 2.8333333730697636 4.5000000000000009 28.000000000000004 19.000000000000004 3.5000000000000004 0.84444445371627819 8.5000000000000018 1.8750000000000002 7.5000000000000009 17.000000000000004 7.0000000000000009 9.0000000000000018 1.5000000000000002 17.000000000000004 53.500000000000007 103.50000000000001 0.22500000149011615 6.5000000000000009
decision_type=2 2 2 2 2 2 2 2 2 2 2 2 2 2 2 2 2 2 2 2 2 2 2 2 2 2 2 2 2 2 2 2 2 2 2 2 2 2 2 2 2 2 2 2 2
left_child=3 43 6 5 14 31 7 10 -9 35 -3 16 20 30 15 18 24 -18 -5 33 22 -22 -6 41 -7 28 -15 -17 -16 -21 -13 38 37 -11 -25 42 -37 -33 39 -1 -34 -14 -4 -2 -40
right_child=1 2 9 4 12 11 -8 8 -10 19 -12 13 23 26 25 27 17 -19 -20 29 21 -23 -24 34 -26 -27 -28 -29 -30 -31 -32 32 40 -35 -36 36 -38 -39 44 -41 -42 -43 -44 -45 -46
leaf_value=0.061096060083678322 0.057816714222194455 -0.010007849524006419 -0.001008073179578389 0.030615432085896666 -0.063771611032818101 -0.0024484240974913776 -0.060467900327317782 -0.010254848544046239 0.040793315431320122 -0.048313662423284505 -0.042585642245400984 0.014820857552881634 -0.054069431452627104 -0.015879374703019575 0.040036938946165446 0.02204483968290313 0.036845548836123364 0.0074595805302569516 -0.075189009578968402 -0.04348474403542861 -0.04051922704128158 0.0074459420938002945 0.0025021115923005589 0.023741196229446492 0.037974604172009589 -0.026329272509321017 -0.059896788297127669 -0.00877458888905845 0.021834485082517563 0.054883397598837418 -0.029447117075366003 0.023098423142293815 0.049421687734268291 -0.057482069763979682 -0.013745916195587796 -0.01150597154549236 -0.035926126902862121 -0.0031056322897857237 0.059390601906349975 0.024167614069663619 0.035576098796649684 0.011618427127496552 -0.020325605595850105 0.042312671928519487 0.052854640273133857
leaf_weight=42.480713557451963 470.73571063857526 893.76823573885486 93.489429529523477 496.8290178917814 36.033457578276284 78.494950922206044 190.16923887294251 1633.7056942385389 483.547930595465 576.80821527750231 518.83699422329664 580.92170524923131 191.81251964560943 233.18869623122737 413.75689759198576 90.007726114243269 339.94857324846089 1091.3436437768396 13.034603625535963 9.2116962673608231 414.19222179602366 456.59664724499453 1444.3236399326706 16.071277486160398 908.80676732677966 31.02844438329339 52.696208748733625 782.71767720230855 487.42536207102239 17.344306632876396 23.89276172593236 27.921160863013938 164.36808935925364 1175.7705811763299 55.841684287879616 160.12645584531128 63.75401276757475 38.25618495978415 174.31286865286529 45.138811618555337 65.409788633696735 1.0759171601384867 13.913339132443069 17.140528876334429 189.54191304929554
leaf_count=116 2379 7201 555 2112 2821 383 9766 18360 828 25636 15965 1610 9082 1765 955 375 930 3872 83 369 13412 2337 7531 39 1943 98 1787 5510 780 25 190 73 356 59079 573 1232 1375 134 374 129 138 18 141 78 417
internal_value=-0.000458327 -0.0175988 -0.0238816 0.0115917 0.00259619 0.0225208 -0.0106581 -0.00795689 0.00141516 -0.0471722 -0.0219986 0.0169222 -0.00876347 0.00105591 0.0154341 0.0067292 0.0227603 0.0144634 0.0277589 -0.0533676 -0.0051682 -0.0153833 0.000843603 -0.0405272 0.0347565 0.0283182 -0.0241909 -0.00556874 0.0302324 0.0202404 0.0130181 0.047247 0.0373339 -0.0544967 -0.00508892 -0.0138245 -0.0186111 0.00805507 0.0536374 0.0426155 0.0456732 -0.0536192 -0.00372108 0.0573699 0.0561537
internal_weight=15305.8 6318.32 5830.45 8987.47 4930.75 4056.72 3720.03 3529.86 2117.25 2110.42 1412.61 3309.29 2615.95 890.699 2314.8 1382.59 2418.59 1431.29 509.864 1779.13 2351.15 870.789 1480.36 264.801 987.302 932.211 285.885 872.725 901.182 26.556 604.814 747.43 295.955 1752.58 71.913 331.283 223.88 66.1773 451.474 87.6195 229.778 192.888 107.403 487.876 363.855
internal_count=202932 142989 140532 59943 45726 14217 52120 42354 19188 88412 23166 12480 35813 5352 9913 8080 7128 4802 2195 85109 26101 15749 10352 9712 2326 1833 3552 5885 1735 394 1800 1737 701 84715 612 3303 2607 207 1036 245 494 9100 696 2457 791
is_linear=0
shrinkage=0.05


Tree=20
num_leaves=53
num_cat=0
split_feature=19 18 18 13 20 19 21 1 18 21 21 22 20 24 10 19 10 13 18 5 21 11 10 5 20 10 10 22 21 21 20 22 18 18 21 4 19 28 19 10 10 4 10 10 21 21 19 10 18 12 18 19
