tree
version=v4
num_class=1
num_tree_per_iteration=1
label_index=0
max_feature_idx=21
objective=lambdarank
feature_names=n dim size log_size cnot_cost t_cost objective_cost control_count is_singleton support_bits active_size overlap off_count cover_ratio off_ratio monotone_valid mono_removed xor_next_size mono_next_size cost_per_overlap cost_per_size current_cost
feature_infos=[3:6] [0:4] [1:16] [0:4] [0:24] [0:40] [0:24] [0:6] [0:1] [0:6] [1:32] [1:16] [0:15] [0.0625:1] [0:0.9375] [0:1] [1:16] [0:31] [0:31] [0:20] [0:18] [0:100]
tree_sizes=3668 4187 3775 3681 3663 3777 3894 3674 3883 3881

Tree=0
num_leaves=33
num_cat=0
split_feature=11 18 13 4 4 9 18 18 19 0 21 19 4 18 4 9 19 0 18 12 18 18 18 18 19 18 18 12 19 11 18 18
split_gain=671.172 515.941 162.559 155.656 106.356 80.6207 60.7072 37.3932 71.9796 33.6677 32.3688 42.8102 77.0173 25.1903 32.9599 23.7928 19.3532 13.1175 12.7254 15.7172 9.91756 17.7112 9.39109 8.18884 6.40417 6.22181 4.06921 3.29544 2.18997 2.0353 1.40009 0.159964
threshold=3.5000000000000004 1.5000000000000002 0.71875000000000011 15.000000000000002 2.0000000000000004 2.5000000000000004 4.5000000000000009 1.0000000180025095e-35 9.5000000000000018 4.5000000000000009 1.0000000180025095e-35 0.46428571641445165 4.5000000000000009 3.5000000000000004 17.000000000000004 2.5000000000000004 0.55000001192092907 4.5000000000000009 2.5000000000000004 1.5000000000000002 6.5000000000000009 8.5000000000000018 4.5000000000000009 23.500000000000004 19.000000000000004 3.5000000000000004 2.5000000000000004 2.5000000000000004 0.18333333730697635 4.5000000000000009 26.500000000000004 12.500000000000002
decision_type=2 2 2 2 2 2 2 2 2 2 2 2 2 2 2 2 2 2 2 2 2 2 2 2 2 2 2 2 2 2 2 2
left_child=1 2 -1 4 18 6 -6 -4 15 20 11 22 16 14 -11 -9 26 -7 19 -3 24 -22 28 25 -5 -14 -13 -20 -2 -24 -25 -12
right_child=10 3 7 9 5 17 -8 8 -10 13 31 12 23 -15 -16 -17 -18 -19 27 -21 21 -23 29 30 -26 -27 -28 -29 -30 -31 -32 -33
leaf_value=-0.093485860269621787 0.092563532578458466 0.053792757218337983 0.096483230535540421 -0.071398769289772415 0.0013953770274630576 -0.054344148419796269 -0.040989413726208582 0.08240784133325102 -0.083584465444154654 0.012816405439768608 0.094005245744785859 0.046752379442907686 0.090921750247867195 -0.096663102756486624 -0.092785217369808326 0.0075478458702872677 -0.092089360326787745 -0.095960874378307456 0.037049394140160626 -0.050549245242983321 -0.012895974665716693 -0.089252899599405702 0.047153210485106893 0.007914211160396754 0.019718189045736339 0.048188614274235805 -0.019442785721853616 0.075769208182624559 0.064969087124756533 0.0017164298553774369 -0.051713444254556463 0.069909581437867491
leaf_weight=15.118782271485541 51.919369715324137 6.5167589439079148 83.807788819132838 30.954345461679623 190.20141397570842 110.78709364929819 150.58624275379407 45.148162028373918 8.526049992622573 13.900033554644326 83.973983799281996 2.7307270392775544 12.323199452133847 122.79845956832287 14.112326747359473 14.261044435319489 12.273262888658792 25.711615995649481 12.565779911470598 5.9344790093018673 37.328978039178764 8.7700771451054589 5.0053184028074593 1.1584598757326596 1.5561033113626752 51.578812563180691 5.1078681874787435 21.710156779459794 25.266347359662177 4.7173392641125247 1.1745183183811603 18.940217364404816
leaf_count=1063 398 89 865 3537 8391 10862 13223 618 940 660 749 40 84 9987 1127 714 935 3268 205 309 4136 2072 101 43 140 2038 174 307 465 187 58 233
internal_value=-0.000411356 -0.0209385 0.0583669 -0.0385628 -0.0234332 -0.0305045 -0.017384 0.0740424 0.0452878 -0.0728468 0.0678031 0.0539492 0.0284274 -0.0868053 -0.0415766 0.0649431 -0.0552609 -0.0628605 0.0478166 0.003629 -0.0452508 -0.0291152 0.0786374 0.0543571 -0.06643 0.0577805 0.0057324 0.0631687 0.0845411 0.0277901 -0.0271137 0.0903343
internal_weight=1196.47 920.296 166.862 753.434 524.014 477.286 340.788 151.743 67.9353 229.42 276.169 173.255 86.3468 150.811 28.0124 59.4092 20.1119 136.499 46.7272 12.4512 78.6095 46.0991 86.9084 66.235 32.5104 63.902 7.8386 34.2759 77.1857 9.72266 2.33298 102.914
internal_count=68018 62513 4200 58313 36654 35744 21614 3137 2272 21659 5505 4523 3372 11774 1787 1332 1149 14130 910 398 9885 6208 1151 2223 3677 2122 214 512 863 288 101 982
is_linear=0
shrinkage=0.05


Tree=1
num_leaves=38
num_cat=0
split_feature=11 9 21 19 19 4 21 21 9 4 4 0 21 21 9 12 20 0 21 21 11 4 21 1 21 21 19 0 19 21 21 9 12 0 19 4 13
split_gain=949.802 226.749 162.892 217.288 107.348 94.52 94.1708 84.7973 79.2066 78.171 62.1033 70.4955 79.7431 73.9113 56.4094 55.021 54.1977 118.889 46.699 46.3936 32.4309 28.7172 46.3524 26.1475 23.0791 18.7652 16.3637 14.1066 13.3456 15.1499 12.3011 6.77746 5.23046 2.07155 0.449907 0.302916 0.15034
threshold=3.5000000000000004 2.5000000000000004 16.500000000000004 5.6666667461395273 0.13392857462167743 15.000000000000002 1.0000000180025095e-35 57.000000000000007 4.5000000000000009 2.0000000000000004 7.0000000000000009 4.5000000000000009 31.000000000000004 3.5000000000000004 3.5000000000000004 2.5000000000000004 7.5000000000000009 3.5000000000000004 1.0000000180025095e-35 31.000000000000004 7.5000000000000009 11.000000000000002 35.500000000000007 1.0000000180025095e-35 8.5000000000000018 19.500000000000004 0.46428571641445165 4.5000000000000009 2.8333333730697636 33.500000000000007 73.000000000000014 2.5000000000000004 7.5000000000000009 4.5000000000000009 0.46428571641445165 15.000000000000002 0.65625000000000011
decision_type=2 2 2 2 2 2 2 2 2 2 2 2 2 2 2 2 2 2 2 2 2 2 2 2 2 2 2 2 2 2 2 2 2 2 2 2 2
left_child=1 2 3 18 32 21 14 23 28 34 -11 13 -13 -12 27 20 24 -18 26 25 -16 -4 -23 -7 -5 -10 -1 31 -8 -30 -9 -6 36 -20 -3 -29 -2
right_child=4 9 5 16 6 7 8 30 19 10 11 12 -14 -15 15 -17 17 -19 33 -21 -22 22 -24 -25 -26 -27 -28 35 29 -31 -32 -33 -34 -35 -36 -37 -38
leaf_value=-0.016969789519373071 0.076207818233753111 0.017867360529172562 0.07445782095508395 -0.046842197013070332 0.040732879654209568 -0.067694140341605535 0.084393657279430309 0.014331133107349342 -0.0025282913471794846 -0.093061080718679509 -0.028406855463812566 -0.068988225760897859 -0.017514856929543129 0.049996370409409012 -0.0066273482773643441 -0.087885362842044928 0.028571568900348527 -0.030047316023047662 0.062199628390307488 0.047317897314926485 0.073848099758296995 0.011090642725176129 0.057779680681723046 -0.01502375354022263 -0.0090234399526064792 -0.071668299840152161 0.010026412819051889 0.05873352573621813 0.048735083371514776 0.077178989143810633 0.057154692417509811 0.020005807508035833 0.056958588412770232 0.040153195631610634 0.03010335979529127 0.040854424763512587 0.091796421718665533
leaf_weight=64.241561835631728 86.044619329273701 28.356144673773088 49.029977891594172 344.38434693089221 51.751739533618093 41.427831638604403 65.45072827860713 38.418547647073865 25.269769614562392 51.705686943838373 365.67904326523421 240.6134204948321 110.9301716517657 31.794776393100619 94.778622082434595 18.209361878223717 108.88146030693315 406.3339759116061 29.575720849912614 35.706398513168097 13.396600510459391 120.87196528306231 95.219754939898849 55.416538187302649 46.67019376787357 15.2929998524487 399.39926220732741 34.003732545766979 172.54954143427312 72.397288762032986 30.706729577388614 191.60272482247092 37.085506306961179 36.882715649204329 21.555467007216066 18.999442687723786 51.854373911395669
leaf_count=255 115 220 380 8493 309 944 106 374 126 1398 14547 10380 2018 185 1208 858 687 11664 90 70 55 2350 808 878 1098 71 4799 252 514 95 129 1349 80 613 203 239 58
internal_value=9.63462e-05 -0.0151434 -0.0053865 -0.0134782 0.0421538 0.0215318 0.0343882 -0.00801105 0.0522058 -0.036526 -0.0403136 -0.0365465 -0.0528557 -0.0220129 0.0179945 -0.00988988 -0.0283416 -0.0176182 0.0119287 0.00637719 0.0038782 0.0400054 0.0318584 -0.0380676 -0.042376 -0.029813 0.00624662 0.0298962 0.0633939 0.057442 0.0339692 0.0245827 0.0776467 0.0508151 0.0237375 0.0532924 0.0827243
internal_weight=3702.49 2718.1 1867.46 1436.37 984.393 431.091 809.409 165.97 386.667 850.635 800.723 749.017 351.544 397.474 422.742 126.385 906.27 515.215 530.099 76.2692 108.175 265.122 216.092 96.8444 391.055 40.5628 463.641 296.358 310.398 244.947 69.1253 243.354 174.984 66.4584 49.9116 53.0032 137.899
internal_count=68018 62513 33562 27699 5505 5863 5252 2325 982 28951 28528 27130 12398 14732 4270 2121 21942 12351 5757 267 1263 3538 3158 1822 9591 197 5054 2149 715 609 503 1658 253 703 423 491 173
is_linear=0
shrinkage=0.05


Tree=2
num_leaves=34
num_cat=0
split_feature=11 17 19 17 19 17 4 17 11 21 10 4 17 9 9 5 10 17 9 9 21 12 17 4 10 21 19 17 4 4 11 19 21
split_gain=1093.43 1251.25 341.529 208.961 184.063 128.342 115.691 86.7184 79.6742 82.2288 72.1475 82.4456 110.806 58.9801 58.0308 56.6203 54.6547 50.8974 48.9614 33.1646 40.0613 27.1948 23.7925 20.1021 17.8759 14.728 24.3168 26.5972 14.5721 13.9598 12.482 12.4065 2.97209
threshold=3.5000000000000004 1.5000000000000002 5.1666667461395273 1.0000000180025095e-35 8.5000000000000018 4.5000000000000009 17.000000000000004 4.5000000000000009 7.5000000000000009 5.0000000000000009 3.5000000000000004 2.0000000000000004 5.5000000000000009 4.5000000000000009 3.5000000000000004 20.000000000000004 6.5000000000000009 5.5000000000000009 2.5000000000000004 1.5000000000000002 1.0000000180025095e-35 2.5000000000000004 7.5000000000000009 13.000000000000002 11.500000000000002 1.0000000180025095e-35 0.18333333730697635 2.5000000000000004 13.000000000000002 4.5000000000000009 5.5000000000000009 9.5000000000000018 45.000000000000007
decision_type=2 2 2 2 2 2 2 2 2 2 2 2 2 2 2 2 2 2 2 2 2 2 2 2 2 2 2 2 2 2 2 2 2
left_child=1 3 10 -1 19 25 7 18 9 14 -3 17 -13 23 30 22 -9 -12 -4 -5 -21 -16 -8 -11 -15 26 -2 29 -29 -28 -7 32 -6
right_child=5 2 6 4 31 8 15 16 -10 13 11 12 -14 24 21 -17 -18 -19 -20 20 -22 -23 -24 -25 -26 -27 27 28 -30 -31 -32 -33 -34
leaf_value=0.091371191566591944 0.079792739112259051 -0.08812467757312667 -0.019512004459553992 0.071427665516559408 -0.045283768548868765 0.014658168294356242 -0.073472213613204482 -0.091528805197464994 0.079096709155173722 0.069925294417101311 -0.0046735439875505366 0.0060982479929660221 -0.038937704607679542 0.015686943539655648 -0.013746224459680351 -0.088651809508464574 -0.046753279436328621 0.047528805763505134 -0.076505756053623891 -0.018803204790709262 0.051056394014571183 -0.084551859103787541 -0.027868808464846337 0.038917165877563352 -0.067360126205560464 0.084537697513988277 0.03790718332308763 0.0031771976219388594 0.071315087731377264 0.089237975878882006 0.04711775033556484 -0.086727504506827466 0.0066169429893451611
leaf_weight=237.15719848359004 97.439800767228007 25.296230611857027 439.62640323233791 70.843379483558238 4.1548408372327668 173.10140607575886 47.360004562186077 82.723835542914458 77.366624381393194 107.06217235326767 82.559075756929815 312.39462273311801 241.15367553080432 11.977592482231559 61.209846975747496 222.76782643469051 421.95963634742657 105.51647962955758 40.516717442544177 32.211367794312537 53.217943749390543 16.726765981467906 76.770610959734768 114.65565085224807 12.199530590325592 128.6402616193518 27.105865958612412 40.556357496418059 8.815345954615621 31.906403917819262 35.542244990821928 31.357581003569067 5.1671770475804806
leaf_count=780 173 725 6893 157 75 1514 2709 3865 145 184 454 3800 9674 54 1028 6545 19216 432 2259 216 580 881 3136 300 142 299 113 392 62 44 174 956 41
internal_value=-0.0002134 -0.0173361 -0.0333235 0.0598403 0.0215778 0.0456765 -0.0486219 -0.0397906 0.0319233 0.0249244 -0.00672337 -0.00382517 -0.0135475 0.0460792 0.00665837 -0.0734925 -0.0542689 0.0246837 -0.0244808 0.0462591 0.024745 -0.0298845 -0.0457561 0.0541594 -0.0270302 0.0705685 0.0614471 0.0443294 0.0166168 0.0667683 0.0204099 -0.0719516 -0.0181769
internal_weight=3477.06 2532.75 2098.65 434.109 196.952 944.306 1331.73 984.827 609.842 532.475 766.92 741.624 553.548 245.895 286.58 346.898 504.683 188.076 480.143 156.273 85.4293 77.9366 124.131 221.718 24.1771 334.464 205.824 108.384 49.3717 59.0123 208.644 40.6796 9.32202
internal_count=68018 62513 59708 2805 2025 5505 44623 32233 4422 4277 15085 14360 13474 680 3597 12390 23081 886 9152 953 796 1909 5845 484 196 1083 784 611 454 157 1688 1072 116
is_linear=0
shrinkage=0.05


Tree=3
num_leaves=33
num_cat=0
split_feature=18 19 11 4 17 17 4 10 17 5 17 4 4 5 10 5 19 18 5 13 17 4 10 17 17 11 18 19 1 19 17 10
split_gain=1127.9 944.742 265.832 132.681 112.584 108.71 94.0599 93.625 77.6273 57.7007 83.6584 61.9434 52.0413 46.9464 44.4778 44.3127 43.8192 24.9559 101.16 23.9081 23.4896 22.7021 22.8115 21.5211 27.3905 21.0185 12.987 9.35657 6.28041 4.97617 4.96126 4.78323
threshold=1.0000000180025095e-35 5.1666667461395273 3.5000000000000004 17.000000000000004 2.5000000000000004 2.5000000000000004 2.0000000000000004 2.5000000000000004 4.5000000000000009 20.000000000000004 3.5000000000000004 11.000000000000002 4.5000000000000009 10.000000000000002 3.5000000000000004 20.000000000000004 3.7500000000000004 1.5000000000000002 20.000000000000004 0.53125000000000011 1.5000000000000002 4.5000000000000009 7.5000000000000009 7.5000000000000009 8.5000000000000018 5.5000000000000009 3.5000000000000004 19.000000000000004 3.5000000000000004 3.1666666269302373 1.5000000000000002 2.5000000000000004
decision_type=2 2 2 2 2 2 2 2 2 2 2 2 2 2 2 2 2 2 2 2 2 2 2 2 2 2 2 2 2 2 2 2
left_child=19 2 4 5 17 7 14 -3 21 10 -7 -11 -8 25 -6 23 -15 29 -19 28 -9 22 -4 27 -25 -10 -23 -5 -1 -2 31 -17
right_child=1 3 8 15 6 9 12 20 13 11 -12 -13 -14 16 -16 30 -18 18 -20 -21 -22 26 -24 24 -26 -27 -28 -29 -30 -31 -32 -33
leaf_value=0.028264874601418979 0.050644797378843559 -0.081592749426633193 -0.013663800251695264 -0.079078868237834721 -0.079052562441444624 -0.089560436650539255 -0.083995935125831436 0.039765478135664598 -0.0028356732489338305 -0.019101353349401516 -0.018725085461344056 -0.065750126534061371 -0.019873703043091905 0.049480124708870338 0.024347661824974821 -0.076873520897277489 0.00092532958678393667 -0.093975493982987102 0.067523710012975482 0.084008249391829021 0.00097012877777949761 0.079479006145603548 0.054151728489234177 -0.013481048768721577 -0.086121492609242178 0.032787760046356862 0.048851526892173425 0.0088951601185249026 0.064382439512075035 0.026515776592231022 -0.083725973539418963 -0.01983987327740673
leaf_weight=28.235946543514729 89.309957324760035 29.475633994676173 17.867372085340321 38.574019009480253 10.100681902840732 46.573763139080256 33.283955012448132 55.802916127024218 141.51958971540444 95.314005989581347 349.22089165641228 296.76015226892196 447.13366797845811 221.8016044027172 167.24341425963212 7.1655792491510519 59.026371429208666 16.055175450164825 21.469394820043817 338.98086572531611 125.66774106072262 122.62009622808546 36.479644795879722 66.824866320705041 15.353207231964914 57.333948603831232 59.288231699727476 2.9562213113531461 25.914412738755345 34.446192144881934 210.14115143031813 9.0093773831613362
leaf_count=301 252 1023 142 2602 273 1068 1268 671 2187 1720 14116 12980 11895 719 824 133 888 241 136 1023 2058 281 139 1391 1745 497 357 143 84 183 6545 133
internal_value=-0.000350966 -0.0111916 0.0156295 -0.0417067 -0.00382167 -0.032357 -0.0130123 -0.00044781 0.0378631 -0.0408828 -0.0272777 -0.0544999 -0.0244918 0.0261988 0.0180202 -0.0682041 0.0393318 0.0334794 -0.00209092 0.0789848 0.0130798 0.0613144 0.031922 -0.0434774 -0.0279847 0.00752301 0.0698458 -0.0726372 0.0464941 0.0442352 -0.0814474 -0.048402
internal_weight=3276.95 2883.82 1534.98 1348.84 819.042 998.815 657.762 210.946 715.937 787.869 395.795 392.074 480.418 479.682 177.344 350.024 280.828 161.281 37.5246 393.131 181.471 236.255 54.347 123.708 82.1781 198.854 181.908 41.5302 54.1504 123.756 226.316 16.175
internal_count=68018 66610 20282 46328 15072 33636 14260 3752 5210 29884 15184 14700 13163 4291 1097 12692 1607 812 377 1408 2729 919 281 5881 3136 2684 638 2745 385 435 6811 266
is_linear=0
shrinkage=0.05


Tree=4
num_leaves=33
num_cat=0
split_feature=18 11 6 18 0 9 17 21 10 0 10 11 9 19 11 17 17 0 17 10 17 10 15 10 0 17 19 10 17 10 10 18
split_gain=995.226 711.13 231.707 150.648 137.875 131.052 112.135 89.1054 74.4931 56.7077 51.34 37.7356 36.1952 34.9487 27.1536 23.9422 22.6447 19.1893 41.492 22.8301 14.193 13.54 12.9785 45.31 30.3765 12.1419 10.293 5.71388 5.46032 5.4549 4.4967 0.198691
threshold=1.0000000180025095e-35 3.5000000000000004 17.000000000000004 4.5000000000000009 4.5000000000000009 2.5000000000000004 11.500000000000002 1.0000000180025095e-35 2.5000000000000004 4.5000000000000009 15.500000000000002 2.5000000000000004 3.5000000000000004 3.4166666269302373 6.5000000000000009 5.5000000000000009 5.5000000000000009 3.5000000000000004 3.5000000000000004 5.5000000000000009 7.5000000000000009 17.500000000000004 1.0000000180025095e-35 3.5000000000000004 3.5000000000000004 8.5000000000000018 19.000000000000004 13.500000000000002 1.5000000000000002 12.500000000000002 2.5000000000000004 5.5000000000000009
decision_type=2 2 2 2 2 2 2 2 2 2 2 2 2 2 2 2 2 2 2 2 2 2 2 2 2 2 2 2 2 2 2 2
left_child=22 2 3 5 6 8 -5 12 -2 20 29 -7 17 -12 16 -6 -14 19 -19 -3 26 -15 23 24 -1 -22 -4 -16 30 31 -11 -9
right_child=1 7 9 4 15 11 -8 10 -10 28 13 -13 14 21 27 -17 -18 18 -20 -21 25 -23 -24 -25 -26 -27 -28 -29 -30 -31 -32 -33
leaf_value=-0.077381639957268114 -0.076713397049248552 0.038574678170501545 -0.072561886930360406 -0.028342854937757362 -0.037838486954153844 -0.065149766081906618 0.058477911347925564 0.07313505898481526 0.0041321491446315002 -0.07273709855195247 0.043983525592120681 -0.01551301703170653 0.014484871762927266 0.0094170840159147617 0.0097284762291915267 -0.078959242767453974 -0.037694194182245573 0.077635720665313615 0.021490726777004889 -0.069027722200550992 -0.012157420949643706 -0.054553644596779187 0.081727009455481434 0.072037355769385789 0.048201264039172124 -0.077498560896362798 0.0028371458757533476 0.067874181457489607 -0.079918131098171377 0.046092446853271116 -0.017011961067349236 0.060846738698202313
leaf_weight=8.4564073871588334 28.451564140152186 7.9427197696641114 26.080099181039262 448.15081396733876 49.693953396286815 103.515214756364 39.585232525598258 129.10339289531112 872.96835723868571 6.5615523438900683 54.626424927264452 62.139627176569775 31.592909400118515 16.563706876710061 7.4853296577930477 161.75490942085162 56.911974405287765 38.539593389257789 209.88817400485277 10.089776013512163 65.20305109815672 14.842819144017993 256.71645469404757 113.75266872858629 8.8239822736941278 7.1342438205610952 5.1948043331503859 10.908377508632837 209.86525150947273 39.413549765944481 9.1272412808611989 56.633633864112198
leaf_count=191 1087 31 1844 18937 2066 4993 528 349 10780 133 105 1361 285 63 71 8956 1694 70 1929 109 1271 133 807 268 142 1343 143 55 7825 98 133 218
internal_value=-0.000140493 -0.0106171 -0.025071 -0.0178681 -0.035892 -0.00603103 -0.0211809 0.033592 0.0014927 -0.0635344 0.0533259 -0.0467651 0.0170325 0.0200816 -0.0074609 -0.0695423 -0.0190586 0.0268686 0.0304971 -0.0218332 -0.032383 -0.0214119 0.0747928 0.0606534 -0.0138522 -0.0196387 -0.0601832 0.0461913 -0.0776161 0.0658619 -0.0435795 0.0697609
internal_weight=3167.72 2779.97 2095.43 1766.26 699.185 1067.07 487.736 684.542 901.42 329.166 311.184 165.655 373.359 86.033 106.899 211.449 88.5049 266.46 248.428 18.0325 103.612 31.4065 387.75 131.033 17.2804 72.3373 31.2749 18.3937 225.554 225.151 15.6888 185.737
internal_count=68018 66610 61400 48708 30487 18221 19465 5210 11867 12692 966 6354 4244 301 2105 11022 1979 2139 1999 140 4601 196 1408 601 333 2614 1987 126 8091 665 266 567
is_linear=0
shrinkage=0.05


Tree=5
num_leaves=34
num_cat=0
split_feature=18 19 21 0 17 19 19 18 0 17 17 17 17 21 11 19 0 20 13 11 17 19 11 17 4 19 0 17 0 21 17 11 13
split_gain=873.512 618.194 204.4 131.248 147.608 113.369 68.6035 70.158 67.1135 60.7233 75.9435 76.8739 40.7536 40.3564 29.0518 28.2252 53.187 26.4909 20.7491 40.515 19.0491 36.3591 24.9472 28.8761 18.2231 15.4492 12.0722 7.42613 4.27435 4.16134 1.96274 1.21738 0.332151
threshold=1.0000000180025095e-35 5.1666667461395273 5.0000000000000009 4.5000000000000009 2.5000000000000004 9.5000000000000018 2.5833333730697636 1.5000000000000002 4.5000000000000009 3.5000000000000004 4.5000000000000009 7.5000000000000009 2.5000000000000004 1.0000000180025095e-35 5.5000000000000009 8.5000000000000018 5.5000000000000009 13.000000000000002 0.53125000000000011 3.5000000000000004 8.5000000000000018 3.4166666269302373 3.5000000000000004 3.5000000000000004 4.5000000000000009 3.7500000000000004 5.5000000000000009 13.500000000000002 4.5000000000000009 21.000000000000004 6.5000000000000009 7.5000000000000009 0.78125000000000011
decision_type=2 2 2 2 2 2 2 2 2 2 2 2 2 2 2 2 2 2 2 2 2 2 2 2 2 2 2 2 2 2 2 2 2
left_child=18 2 6 9 5 26 14 25 -9 12 13 -12 17 -11 24 16 -6 -3 19 -1 22 29 23 -4 -2 -8 -5 -23 -16 -22 -24 -21 -20
right_child=1 3 20 4 15 -7 7 8 -10 10 11 -13 -14 -15 28 -17 -18 -19 32 31 21 27 30 -25 -26 -27 -28 -29 -30 -31 -32 -33 -34
leaf_value=-0.069086577869912291 0.0022980428360556554 -0.05542484165968925 0.050614070078784462 0.00035845439451588846 -0.074166023794439206 -0.080140697327230101 0.044195949978778862 -0.030648860802698508 0.015630558275732381 0.024420258071494588 -0.056462497513495108 -0.0078573230803053121 -0.085047643189426245 -0.076399556271274094 0.033470277113778132 -0.078078885736115558 -0.025758030223914465 0.0033859959574543325 0.066355027912596287 0.04225988753074858 0.036732152410942721 0.0041303086915741374 0.069968970238543357 -0.015094228425934542 0.022308602470292517 -0.0073324473515388724 0.03226595202691291 -0.042339464411656522 0.06277289959696869 0.063783418640443929 0.051656067316282417 0.06827872552767815 0.078324145872867845
leaf_weight=6.5249506984837344 342.55676910688635 37.711731415241957 52.590162574779242 65.368137412704527 128.64046561508439 41.408754715463147 59.274233441334218 322.33833236474311 102.53603313746862 145.03284896642435 121.10046149772825 245.86559820442926 49.975237286183983 9.6646582516841573 69.53641153126955 233.81427884195 104.43859928497113 37.376443678513169 62.978654793463647 17.617934735491872 39.333129663020372 28.069563361816108 118.73672152496874 23.599562522955239 170.05872596520931 18.626408467069268 53.771672114031389 11.204687180928884 17.664327800041065 32.214339032769203 38.066874220967293 21.47804540488869 264.62986250407994
leaf_count=257 3760 986 371 1595 9324 1643 204 9514 1901 1824 6756 10401 1395 245 490 9488 2219 142 209 91 79 190 391 621 2210 95 319 140 164 55 138 40 842
internal_value=0.000154507 -0.00969257 0.0126722 -0.0350745 -0.0513611 -0.00988939 0.00215788 -0.0114469 -0.0194579 -0.0192109 -0.0116469 -0.0240207 -0.0503792 0.0176392 0.01357 -0.0655595 -0.0526993 -0.0264253 0.0717801 0.0386455 0.0462723 0.0286919 0.0544546 0.0302645 0.00897673 0.0318751 0.0149497 -0.00972516 0.0401072 0.0496922 0.0659104 0.0580249 0.0762474
internal_weight=3093.8 2720.58 1446.41 1274.17 627.442 160.549 1102.59 502.775 424.874 646.727 521.664 366.966 125.063 154.698 599.816 466.893 233.079 75.0882 373.229 45.6209 343.815 110.822 232.993 76.1897 512.615 77.9006 119.14 39.2743 87.2007 71.5475 156.804 39.096 327.609
internal_count=68099 66660 20323 46337 24588 3557 18338 11714 11415 21749 19226 17157 2523 2069 6624 21031 11543 1128 1439 388 1985 464 1521 992 5970 299 1914 330 654 134 529 131 1051
is_linear=0
shrinkage=0.05


Tree=6
num_leaves=35
num_cat=0
split_feature=18 19 21 0 18 19 9 4 4 18 21 20 19 18 13 10 18 0 10 20 18 19 10 19 10 19 19 18 18 4 21 13 13 21
split_gain=753.015 576.297 164.474 100.885 139.242 93.6551 56.7684 41.7896 91.5886 62.8805 40.8848 49.5861 34.6741 27.0236 26.0113 30.7513 25.6492 43.5154 24.794 43.6421 13.6605 31.5387 9.58745 6.13777 5.56319 5.35159 4.42592 4.17627 3.63403 6.43899 2.53684 0.923704 0.671598 0.0586847
threshold=1.0000000180025095e-35 5.1666667461395273 7.5000000000000009 4.5000000000000009 2.5000000000000004 9.5000000000000018 2.5000000000000004 2.0000000000000004 4.5000000000000009 1.5000000000000002 1.0000000180025095e-35 9.5000000000000018 0.55000001192092907 2.5000000000000004 0.53125000000000011 3.5000000000000004 5.5000000000000009 5.5000000000000009 7.5000000000000009 0.15625000000000003 4.5000000000000009 4.2500000000000009 14.500000000000002 4.5833332538604745 7.5000000000000009 0.18333333730697635 4.5833332538604745 9.5000000000000018 1.5000000000000002 15.000000000000002 13.500000000000002 0.78125000000000011 0.71875000000000011 13.500000000000002
decision_type=2 2 2 2 2 2 2 2 2 2 2 2 2 2 2 2 2 2 2 2 2 2 2 2 2 2 2 2 2 2 2 2 2 2
left_child=14 2 7 10 5 6 -5 18 12 -10 11 13 -9 -3 15 -1 17 -6 19 -2 23 22 -22 33 -17 -20 -23 -13 29 -12 -25 32 -16 -4
right_child=1 3 20 4 16 -7 -8 8 9 -11 28 27 -14 -15 31 24 -18 -19 25 -21 21 26 -24 30 -26 -27 -28 -29 -30 -31 -32 -33 -34 -35
leaf_value=-0.065570730481712566 -0.090937412783252305 -0.069300117086426694 0.051705193180375975 0.032954197407432245 -0.071668058477399488 -0.07626415665626457 -0.042879659029925972 -0.0078167258541677383 0.038656331152947615 -0.0035827751981651317 -0.063286786323131117 0.00037254057275492854 -0.079446060138350441 -0.02286357733343844 0.068471721781994385 0.025611977782743125 -0.073126867757058123 -0.02291941155855784 0.04732846042241988 0.011434557466493953 0.055718581828514469 -5.2626412529329694e-05 0.029811448096058693 0.0077369156823912369 0.065868998513348223 0.02616726087785683 -0.04771281502130223 0.024072730866521522 -0.07375031218027199 0.016174897427850107 0.04578870518507977 0.075403008770421678 0.047424361801789043 0.069464891364716272
leaf_weight=6.0910073337145141 10.104028399335219 33.875968866981566 20.518212536349893 91.114334121113643 94.363326244289055 37.774966479511932 32.720867158845067 26.198862318415195 103.64131898898631 556.25694957212545 5.0454009771347028 199.13164081913419 48.713670067489147 358.75464504084084 38.564746434334666 18.673969838302583 257.10792538546957 91.446954806568101 43.651834812946618 165.14356638351455 73.609927613288164 9.731619912199676 80.759963125921786 5.6176840083207926 20.395384931005538 123.38241244642995 9.2012971709482372 19.561638910556212 34.853773479349911 3.6940758759155869 52.342319172108546 255.35912273265421 20.132953772321343 62.992850750684738
leaf_count=257 315 1144 78 780 5947 1643 1332 281 271 13665 157 2745 2249 16398 94 91 13082 1804 210 865 230 99 306 93 40 619 444 245 1009 51 432 842 115 166
internal_value=0.000193894 -0.00901698 0.0131514 -0.0335112 -0.0482397 -0.00840984 0.0126937 0.00383958 -0.00287932 0.00309204 -0.0198555 -0.0164417 -0.0548942 -0.0270487 0.0680277 0.0313737 -0.0627097 -0.0479542 0.0182446 0.00502138 0.0448859 0.0350094 0.0424763 0.0566188 0.0478715 0.0319759 -0.0246977 0.00261515 -0.0661736 -0.0309737 0.0423792 0.0731663 0.0622517 0.065824
internal_weight=3010.53 2651.31 1391.87 1259.45 604.528 161.61 123.835 1077.09 734.811 659.898 654.917 611.324 74.9125 392.631 359.217 45.1604 442.918 185.81 342.282 175.248 314.774 173.303 154.37 141.471 39.0694 167.034 18.9329 218.693 43.5933 8.73948 57.96 314.057 58.6977 83.5111
internal_count=68099 66660 20323 46337 24588 3755 2112 18475 16466 13936 21749 20532 2530 17542 1439 388 20833 7751 2009 1180 1848 1079 536 769 131 829 543 2990 1217 208 525 1051 209 244
is_linear=0
shrinkage=0.05


Tree=7
num_leaves=33
num_cat=0
split_feature=18 19 21 4 17 11 10 19 18 4 5 10 10 17 17 17 17 19 14 10 17 19 19 10 11 17 10 10 21 14 14 10
split_gain=687.521 487.128 144.131 90.4507 64.2259 46.7085 68.1013 46.0465 35.8211 37.0545 33.7737 30.6191 29.0897 41.9798 28.3186 21.7047 16.0937 14.8856 14.7031 30.5227 11.44 27.7815 13.1245 8.85591 8.56103 6.27382 3.29355 3.2755 1.97424 0.705856 0.856747 0.652704
threshold=1.0000000180025095e-35 5.1666667461395273 7.5000000000000009 17.000000000000004 4.5000000000000009 1.5000000000000002 6.5000000000000009 2.5833333730697636 1.5000000000000002 11.000000000000002 20.000000000000004 3.5000000000000004 2.5000000000000004 1.5000000000000002 3.5000000000000004 7.5000000000000009 8.5000000000000018 3.1666666269302373 0.46875000000000006 3.5000000000000004 4.5000000000000009 4.5833332538604745 3.4166666269302373 10.500000000000002 3.5000000000000004 1.5000000000000002 5.5000000000000009 2.5000000000000004 15.500000000000002 0.21875000000000003 0.28125000000000006 7.5000000000000009
decision_type=2 2 2 2 2 2 2 2 2 2 2 2 2 2 2 2 2 2 2 2 2 2 2 2 2 2 2 2 2 2 2 2
left_child=18 2 7 4 12 6 -6 11 17 -10 15 -2 -3 -14 -13 -5 -17 -9 29 -20 24 22 -22 -7 26 27 -4 -12 -23 -1 -31 -21
right_child=1 3 20 10 5 23 -8 8 9 -11 25 14 13 -15 -16 16 -18 -19 19 31 21 28 -24 -25 -26 -27 -28 -29 -30 30 -32 -33
leaf_value=0.072539994264356297 -0.070246864309719007 -0.063471063864340538 0.043245403039829766 -0.066112294067546651 -0.073532830415118197 -0.047802911081669314 -0.010090952168444502 0.036386611222712632 -0.022161704685117724 0.016025547570702642 -0.060834302128939421 0.035141534082586405 0.035017240221417993 -0.013858642023557719 0.0082835068585196802 -0.005426961842160829 -0.071398220844588245 -0.0099624778772424965 -0.06186294579050744 0.040193616011889879 0.052597915143489729 -0.06673513110863874 0.02350260002309516 -0.072327334154121889 0.065074293028563532 -0.071620236485903113 0.010282629778805338 -0.010455424943421094 -0.016168763360765701 0.04458677244472628 0.066392604934519053 0.063668450918585126
leaf_weight=248.07831437513232 9.9947961904108507 24.866067547351122 51.012625269126147 31.362355064600706 53.006690187845379 118.13989847293124 198.43553754279856 54.811490097083151 316.30110573256388 78.496789944591001 5.0584636358544204 123.9727257580962 47.835806790273637 436.22224019258283 466.41394122457132 58.991164310835302 10.060382697964085 24.379185118712485 5.7958141965791574 16.013258483726531 79.256265360862017 4.8522252223920059 82.420822472311556 66.600447548087686 73.633064461871982 169.84197082929313 10.22952518891543 8.6866775066591799 4.615967811550945 19.235167635604739 36.57307869521901 18.807271360419691
leaf_count=842 352 1127 339 2724 3814 6557 8339 167 10377 1143 134 617 657 8811 5686 1388 1756 133 257 91 175 282 472 4320 229 6577 167 133 184 115 94 40
internal_value=0.000298811 -0.00847212 0.011907 -0.0313547 -0.0238655 -0.0379323 -0.0237233 0.00326512 -0.00836863 -0.0145351 -0.0560889 0.0124567 -0.0117487 -0.00895606 0.0139816 -0.0321929 -0.015992 0.0221092 0.0665825 0.0366326 0.0421211 0.0330858 0.0380319 -0.0570129 0.0532214 -0.0688866 0.0380735 -0.0322032 -0.04646 0.0704358 0.0598821 0.0544359
internal_weight=2954 2609.5 1380.39 1229.11 945.107 436.183 251.442 1074.37 473.989 394.798 284.001 600.381 508.924 484.058 590.387 100.414 69.0515 79.1907 344.503 40.6163 306.02 171.145 161.677 184.74 134.875 183.587 61.2422 13.7451 9.46819 303.887 55.8082 34.8205
internal_count=68099 66660 20323 46337 33625 23030 12153 18475 11820 11520 12712 6655 10595 9468 6303 5868 3144 300 1439 388 1848 1113 647 10877 735 6844 506 267 466 1051 209 131
is_linear=0
shrinkage=0.05


Tree=8
num_leaves=35
num_cat=0
split_feature=18 19 0 0 18 19 19 17 18 1 17 10 17 17 19 19 0 19 17 19 19 17 0 4 12 1 0 10 19 1 17 4 17 19
split_gain=619.986 425.567 110.603 88.1432 119.141 100.456 50.0086 43.6068 40.4243 36.6324 45.2951 33.0862 32.9182 30.3847 74.3414 29.8114 29.2098 23.1096 33.0823 17.2596 15.001 10.8918 23.292 8.60579 7.09632 24.4065 13.7781 6.94792 6.0496 3.77312 2.04899 1.68951 1.16299 0.806876
threshold=1.0000000180025095e-35 5.1666667461395273 4.5000000000000009 4.5000000000000009 3.5000000000000004 8.5000000000000018 2.5833333730697636 11.500000000000002 1.5000000000000002 1.0000000180025095e-35 8.5000000000000018 10.500000000000002 3.5000000000000004 8.5000000000000018 3.7500000000000004 0.18333333730697635 5.5000000000000009 4.5833332538604745 5.5000000000000009 3.4166666269302373 3.1666666269302373 5.5000000000000009 5.5000000000000009 9.0000000000000018 1.0000000180025095e-35 2.5000000000000004 3.5000000000000004 4.5000000000000009 9.5000000000000018 1.5000000000000002 10.500000000000002 17.000000000000004 12.500000000000002 2.8333333730697636
decision_type=2 2 2 2 2 2 2 2 2 2 2 2 2 2 2 2 2 2 2 2 2 2 2 2 2 2 2 2 2 2 2 2 2 2
left_child=24 2 6 7 5 16 11 9 20 27 -11 15 -10 17 19 -2 -5 31 -19 -15 -8 22 -6 -13 -1 26 -26 -3 -7 -9 -16 -4 -31 -28
right_child=1 3 13 4 21 28 8 29 12 10 -12 23 -14 14 30 -17 -18 18 -20 -21 -22 -23 -24 -25 25 -27 33 -29 -30 32 -32 -33 -34 -35
leaf_value=0.070305671341615902 0.054836645220810526 -0.017118366964642851 0.059054482623968521 -0.011391509390899224 -0.071618570097778944 -0.031457290208695858 0.032529252265760415 0.014678279495857708 -0.074334030927288797 -0.021661898981678088 -0.071761799143933561 -0.059723061913401133 -0.016049267453914814 0.043553104158299355 -0.034420566556130378 0.0099556178642449984 0.032416357033820106 0.033563497672191481 -0.062038020621368241 0.0035873903177039246 -0.015789730708934611 -0.068636827896621108 -0.024722772612941417 0.021133635503171103 -0.067133419582770734 0.060959942711960063 0.052222086092356193 0.0029013499661927891 -0.07248540075083755 0.034160312776926327 -0.066739467087687521 0.042250869055039005 0.073376777757194575 0.010493484518228654
leaf_weight=225.5910399351269 38.948244594037533 58.883526049554348 120.05250850133598 88.159556767204776 53.153107366524637 13.977699277922509 55.619414126034826 7.4279775936156538 26.000879664905369 346.3389350118814 51.41936374513898 19.290075425058607 255.22983339475468 92.93323399219662 14.024176690727474 529.38354125176556 65.348889322020113 88.421252249972895 9.1132110306061787 38.584106300026178 21.564334065653384 235.15218088845722 55.855501120910048 3.3020840585231772 5.442358944565056 92.236040576652158 2.6251354701817036 155.2335401403252 55.206765582319349 6.7147614830173579 16.404483721591532 35.064192968187854 9.983320917002855 3.1909990459680557
leaf_count=830 132 797 590 2903 3801 379 178 165 748 13396 5312 691 8816 325 423 5548 261 988 525 295 114 13325 1278 97 143 354 12 1829 2641 187 602 251 63 100
internal_value=0.000402039 -0.00788827 0.0112253 -0.029557 -0.0438897 -0.0152674 0.00180059 -0.0167258 -0.0129068 -0.0193556 -0.0283147 0.0107363 -0.0216999 0.0327377 0.0156456 0.013131 0.00731434 0.043569 0.0240412 0.0319814 0.0189362 -0.0622977 -0.048078 -0.0472982 0.0649077 0.0525334 -0.0154348 -0.00263494 -0.0648338 0.0478852 -0.0535723 0.055583 0.0607105 0.0349597
internal_weight=2895.88 2566.79 1363.94 1202.86 566.854 222.693 949.338 636.001 358.414 611.875 397.758 590.924 281.231 414.597 161.946 568.332 153.508 252.651 97.5345 131.517 77.1837 344.161 109.009 22.5922 329.086 103.495 11.2585 214.117 69.1845 24.1261 30.4287 155.117 16.6981 5.81613
internal_count=68099 66660 20323 46337 24588 6184 16324 21749 9856 21334 18708 6468 9564 3999 1645 5680 3164 2354 1513 620 292 18404 5079 788 1439 609 255 2626 3020 415 1025 841 250 112
is_linear=0
shrinkage=0.05


Tree=9
num_leaves=35
num_cat=0
split_feature=18 19 21 4 17 11 18 11 17 4 5 9 11 4 17 9 13 11 17 17 19 9 11 17 9 4 5 17 21 21 11 18 13 13
split_gain=559.984 367.052 109.924 77.5738 41.0163 45.6955 62.9082 38.4023 39.6896 50.6023 29.7339 27.5721 27.804 27.0953 17.4542 13.9799 12.3484 24.1417 11.8639 10.4694 22.1822 11.6551 8.18857 6.52763 4.25693 7.90794 4.15183 1.77177 1.09871 1.0792 0.821554 0.705203 0.258608 0.212295
threshold=1.0000000180025095e-35 5.1666667461395273 7.5000000000000009 17.000000000000004 4.5000000000000009 1.5000000000000002 5.5000000000000009 5.5000000000000009 2.5000000000000004 2.0000000000000004 20.000000000000004 2.5000000000000004 1.5000000000000002 4.5000000000000009 7.5000000000000009 1.5000000000000002 0.53125000000000011 3.5000000000000004 8.5000000000000018 4.5000000000000009 4.5833332538604745 3.5000000000000004 3.5000000000000004 1.5000000000000002 3.5000000000000004 7.0000000000000009 20.000000000000004 3.5000000000000004 15.500000000000002 57.000000000000007 7.5000000000000009 3.5000000000000004 0.78125000000000011 0.71875000000000011
decision_type=2 2 2 2 2 2 2 2 2 2 2 2 2 2 2 2 2 2 2 2 2 2 2 2 2 2 2 2 2 2 2 2 2 2
left_child=16 2 7 4 11 6 -6 8 13 -10 14 12 -3 -2 -5 -7 17 -1 -16 22 21 -21 27 29 31 -26 -13 -4 -22 -12 -19 -9 33 -18
right_child=1 3 19 10 5 15 -8 24 9 -11 23 26 -14 -15 18 -17 32 30 -20 20 28 -23 -24 -25 25 -27 -28 -29 -30 -31 -32 -33 -34 -35
leaf_value=-0.057977440209206699 -0.022336549286530366 -0.017489135692672405 0.038061063414405807 -0.061601100666951882 -0.069487193155406121 -0.025516281077880176 -0.0057422502038486497 0.053858533212573473 0.012498361667113045 -0.013422325732173612 -0.010815477188636737 -0.019742927502076332 0.0078433972467526307 0.032493330627582237 -0.0060537692076825002 -0.060868398398906266 0.062323337042228921 0.035422028182783678 -0.066076460408913615 0.046467181364336002 -0.06118854850907051 0.0182779064953137 0.061246936285861524 -0.067835959169551013 0.0034150711155641841 0.052246309236229284 -0.057907094392843916 0.012379678835844128 -0.018652261280177548 -0.042981232634253165 0.060145505319411853 0.035137125826483491 0.068541490039646963 0.043487648222470504
leaf_weight=5.1813581353053442 26.37743177684024 277.80531916813925 51.297227331902832 28.251183154177852 47.621206582873128 39.100408177240752 191.95000168401748 23.336681455373764 289.01619085739367 535.47241569473408 7.4054610352031869 11.396698139142243 176.05494750593789 129.56996219197754 58.143410962657072 128.26435432152357 33.258820771705359 14.0532054733485 8.6994547038339061 80.122718563303351 4.4033143208362144 72.186064296402037 65.057293999940157 152.76085381372832 23.39793848618865 12.190754029434173 32.546728791669011 9.8411628622561675 4.4896378589328378 4.8841365305706859 17.135303695686162 23.102400032803416 229.05809175409377 17.50960198789835
leaf_count=257 211 5265 339 2724 3814 1728 8339 81 1697 15320 155 496 2757 585 1388 9149 94 91 1756 238 282 409 229 6577 282 139 2077 167 184 112 40 160 842 115
internal_value=0.000411891 -0.00747998 0.0102601 -0.0280326 -0.0210629 -0.0328308 -0.0186702 0.00282123 5.1104e-05 -0.0043259 -0.0520791 -0.0113866 -0.00765587 0.0231041 -0.029251 -0.0528396 0.0630183 0.0338667 -0.0147981 0.0376381 0.0287865 0.033346 0.0485905 -0.0649461 0.0354715 0.0212494 -0.04878 0.0342735 -0.0442755 -0.0262473 0.0506073 0.0455875 0.0666553 0.0568892
internal_weight=2830.94 2514.75 1349.86 1164.88 904.74 406.936 239.571 1062.46 980.436 824.489 260.145 497.804 453.86 155.947 95.094 167.365 316.196 36.3699 66.8429 287.397 161.202 152.309 126.196 165.05 82.0278 35.5887 43.9434 61.1384 8.89295 12.2896 31.1885 46.4391 279.827 50.7684
internal_count=68099 66660 20323 46337 33625 23030 12153 18475 17813 17017 12712 10595 8022 796 5868 10877 1439 388 3144 1848 1113 647 735 6844 662 421 2573 506 466 267 131 241 1051 209
is_linear=0
shrinkage=0.05


end of trees

feature_importances:
xor_next_size=54
cost_per_overlap=50
mono_next_size=37
cnot_cost=31
current_cost=30
active_size=29
overlap=24
n=22
support_bits=17
cover_ratio=11
t_cost=8
off_count=6
dim=5
cost_per_size=4
off_ratio=3
objective_cost=1
monotone_valid=1

parameters:
[boosting: gbdt]
[objective: lambdarank]
[metric: ndcg]
[tree_learner: serial]
[device_type: cpu]
[data_sample_strategy: bagging]
[data: ]
[valid: ]
[num_iterations: 1000]
[learning_rate: 0.05]
[num_leaves: 63]
[num_threads: 0]
[seed: 42]
[deterministic: 0]
[force_col_wise: 0]
[force_row_wise: 0]
[histogram_pool_size: -1]
[max_depth: 6]
[min_data_in_leaf: 50]
[min_sum_hessian_in_leaf: 0.001]
[bagging_fraction: 0.8]
[pos_bagging_fraction: 1]
[neg_bagging_fraction: 1]
[bagging_freq: 5]
[bagging_seed: 400]
[bagging_by_query: 0]
[feature_fraction: 0.8]
[feature_fraction_bynode: 1]
[feature_fraction_seed: 30056]
[extra_trees: 0]
[extra_seed: 12879]
[early_stopping_round: 0]
[early_stopping_min_delta: 0]
[first_metric_only: 0]
[max_delta_step: 0]
[lambda_l1: 0.1]
[lambda_l2: 1]
[linear_lambda: 0]
[min_gain_to_split: 0]
[drop_rate: 0.1]
[max_drop: 50]
[skip_drop: 0.5]
[xgboost_dart_mode: 0]
[uniform_drop: 0]
[drop_seed: 17869]
[top_rate: 0.2]
[other_rate: 0.1]
[min_data_per_group: 100]
[max_cat_threshold: 32]
[cat_l2: 10]
[cat_smooth: 10]
[max_cat_to_onehot: 4]
[top_k: 20]
[monotone_constraints: ]
[monotone_constraints_method: basic]
[monotone_penalty: 0]
[feature_contri: ]
[forcedsplits_filename: ]
[refit_decay_rate: 0.9]
[cegb_tradeoff: 1]
[cegb_penalty_split: 0]
[cegb_penalty_feature_lazy: ]
[cegb_penalty_feature_coupled: ]
[path_smooth: 0]
[interaction_constraints: ]
[verbosity: -1]
[saved_feature_importance_type: 0]
[use_quantized_grad: 0]
[num_grad_quant_bins: 4]
[quant_train_renew_leaf: 0]
[stochastic_rounding: 1]
[linear_tree: 0]
[max_bin: 255]
[max_bin_by_feature: ]
[min_data_in_bin: 3]
[bin_construct_sample_cnt: 200000]
[data_random_seed: 175]
[is_enable_sparse: 1]
[enable_bundle: 1]
[use_missing: 1]
[zero_as_missing: 0]
[feature_pre_filter: 1]
[pre_partition: 0]
[two_round: 0]
[header: 0]
[label_column: ]
[weight_column: ]
[group_column: ]
[ignore_column: ]
[categorical_feature: ]
[forcedbins_filename: ]
[precise_float_parser: 0]
[parser_config_file: ]
[objective_seed: 16083]
[num_class: 1]
[is_unbalance: 0]
[scale_pos_weight: 1]
[sigmoid: 1]
[boost_from_average: 1]
[reg_sqrt: 0]
[alpha: 0.9]
[fair_c: 1]
[poisson_max_delta_step: 0.7]
[tweedie_variance_power: 1.5]
[lambdarank_truncation_level: 30]
[lambdarank_norm: 1]
[label_gain: ]
[lambdarank_position_bias_regularization: 0]
[eval_at: 1,3,5,10]
[multi_error_top_k: 1]
[auc_mu_weights: ]
[num_machines: 1]
[local_listen_port: 12400]
[time_out: 120]
[machine_list_filename: ]
[machines: ]
[gpu_platform_id: -1]
[gpu_device_id: -1]
[gpu_use_dp: 0]
[num_gpu: 1]

end of parameters

pandas_categorical:null
